-7580
-32768
-32768
1476
-826
-26752
6144
-32768
-9944
-5996
-32768
-3952
-1930
-32768
32767
-12792
1780
32767
-115
-2704
32767
-3192
1362
2948
-32768
351
722
32767
201
32767
-10968
-236
-32768
32767
387
32767
-1384
-500
32767
32767
-2019
-32768
101
-15792
-32768
-1539
-8632
32767
32767
-32768
-684
-1190
-4504
32767
-32768
32767
-32768
32767
-4856
-32768
-1917
-2548
-27968
1098
-32768
32767
-5460
-1547
1699
-32768
-32768
-110
1258
908
-7500
1266
-32768
-32768
-32768
32767
-1695
-145
-28544
-32768
-32768
32767
-18000
-16672
32767
32767
32767
-32768
-2400
-6
19648
32767
-1002
2278
32767
-249
32767
6948
10848
32767
32767
32767
849
-899
-32768
-1659
-7080
1651
-4180
-32768
3876
-32768
-2176
32767
-3454
-32272
-32768
-32768
-8192
-2934
2970
-32768
32767
4828
-15728
32767
-32768
32767
266
32767
-11088
-462
668
-2410
32767
-32768
32767
-32768
-15712
-32768
-5200
168
-32768
32767
-5876
-156
-32768
1712
32767
-15168
808
-712
-32768
-3234
-926
-32768
32767
-1068
1601
-1223
632
-15168
1162
-16720
17488
-1077
1752
32767
-467
-32768
-1048
32767
-32768
1107
-32768
-32768
-32768
-17024
556
32767
-32768
-9440
748
-1713
-32768
32767
-7564
32767
-1095
32767
-32768
-15896
-1132
-32768
-2286
-32768
32767
-32768
32767
-32768
32767
-32768
-32768
-32768
32767
-49
-782
352
702
-3440
470
466
-12480
1463
6628
32767
32767
-32768
-1362
-32768
-335
-32768
32767
871
16136
32767
-3930
-71
7628
-1496
-1465
-32768
32767
2026
-32768
-32768
-1863
-788
-992
2944
32767
1673
32767
32767
1621
32767
-8088
32767
-32768
-2154
556
-32768
-1619
-32768
-6840
32767
-32768
816
1816
-32768
32767
-7260
1238
-32768
-32768
-32768
-584
-30272
-2068
1726
8792
51
-32768
-3328
-9896
32767
-32768
-23120
-25984
-13072
32767
-2118
32767
4124
844
32767
14296
1692
-1826
32767
-28192
-32768
-10728
-1504
32767
-32768
-2116
-32768
32767
-1546
-1901
32767
-2702
-518
32767
-556
-2198
-898
-32768
-32768
795
32767
-1322
32767
-32768
-6220
32767
32767
-1671
32767
-32768
-1496
32767
32767
-32768
30112
-2212
-32016
32767
-9424
-32768
17344
32767
-11088
1957
-920
4496
32767
-32768
32767
-32768
32767
-692
13680
1530
-5648
32767
-6672
-32768
32767
32767
524
-5496
32767
32767
484
-3020
-134
-32768
-123
-32768
-32768
-26320
32767
-2416
-26000
-32768
-32768
-32768
32767
-3576
-3896
32767
32767
32767
-24048
-32768
-2286
2236
32767
-935
-1664
-32768
12904
32767
11128
-26544
32767
32767
3054
-2084
-2298
32767
-542
-13720
472
-1416
-32768
-4932
-32768
-266
32767
-4296
-32768
32767
-32768
-5412
374
765
32767
32767
32767
-1467
32767
6116
32767
-3778
32767
-32768
-12424
647
4784
1967
-32768
32767
-32768
-1648
-32768
1172
-2350
-32768
32767
-5632
-857
32767
-388
-32768
32767
-1311
1329
-27920
-2104
44
-32768
32767
770
-5276
-93
-123
-32768
658
32767
-1123
-2448
-32768
32767
-1192
-32768
1018
-32768
4432
618
-32768
-32768
32767
32767
-1846
32767
-32768
-675
-22176
-18256
32767
-32768
-1017
15440
1410
32767
1220
-10704
-2066
-32768
-2102
-32768
32767
32767
32767
-32768
32767
-20512
-32768
32767
32767
1736
-2021
-2198
-750
-26048
-12
-18464
-20704
-7736
32767
32767
-32768
-32768
-405
32767
-8280
19264
32767
3962
32767
32767
-7076
-6048
3406
1669
1654
-32768
18640
-1124
-32768
32767
11960
410
-308
-32768
-32768
2006
-32768
32767
-2250
32767
-32768
32767
-32768
-934
-25488
-32768
2194
-32768
173
32767
32767
1483
-1788
-19664
32767
8664
-978
-32768
-32768
32767
-15464
-32768
-32768
-2104
-1192
-2644
-19888
-12016
32767
-32768
-32768
-926
-463
-32768
-32768
-10736
-25408
1437
1810
32767
-32768
241
868
-32768
-8616
-32768
-8960
576
-32768
1694
1081
-25040
32767
-2296
-600
-32768
948
-1955
32767
-9824
-130
-135
-844
1203
-528
32767
2294
32767
-32768
1723
32767
32767
-23680
32767
32767
-1646
-9896
-32768
-13976
-32768
1138
-11112
-32768
-574
2304
32767
32767
-15688
-1649
-1114
-31
32767
-32768
32767
-32768
-32768
727
-32768
-105
-1221
-7476
188
-32768
-24816
-26960
-2212
-201
-32768
-32768
1405
302
1348
14176
-906
-32768
-32768
-4856
-32768
1537
-3642
32767
-12832
-32768
15272
32767
-11760
32767
-32768
32767
4040
-778
-1422
32767
32767
1074
523
32767
-32768
14856
32767
32767
32767
32767
-14248
-728
2196
-32768
108
-1641
-3452
28
-32768
-32768
-32768
909
-32768
-21008
-32768
12128
-14160
-23760
-2340
-1680
32767
-32768
32767
100
32767
-32768
-32768
399
-32768
-6616
-1054
1407
1520
-11552
-32768
32767
32767
-1718
-5568
2316
216
-3156
-32768
-32768
110
32767
379
-32768
-32768
3038
2088
-30640
-10552
142
-29968
32767
-1448
9464
2124
83
32767
1771
25152
6476
59
-18000
32767
-431
-32768
-786
-32768
32767
-32768
32767
-32768
32767
-32768
-5720
-32768
-32768
-21872
-1379
-9656
32767
32767
-10568
32767
-198
32767
-32768
-4396
-1357
-32768
1742
32767
32767
32767
-32768
-32768
-32768
-32768
-16512
32767
-32768
1102
-1900
-25088
2130
-1485
-6248
833
-8856
1054
-32768
32767
32767
32767
604
32767
-16344
-32768
32767
59
32767
32767
-28624
-603
-32768
-168
2037
-3536
32767
-575
-32768
-32768
-32768
-823
564
32767
32767
-22560
32767
32767
-1609
32767
-5696
32767
-32768
-1053
-1134
32767
870
-32768
-1269
22544
-32768
-636
-5792
32767
6696
-11168
1975
-32768
-32768
-32768
-980
-32768
-21920
192
-1254
1613
-17360
8496
32767
5580
32767
1583
-31184
-15432
32767
-1322
-32768
1989
-1526
32767
32767
-2100
1970
457
4504
32767
-16960
-2156
32767
-32768
1707
-32768
-32768
197
-2332
32767
2016
-426
-32768
-219
-1643
55
-32768
2390
-404
13432
51
32767
-32768
-7312
32767
-32768
-2296
32767
32767
-2182
7380
32767
-32768
-21984
1826
-32768
32000
-5344
-4552
-32768
-32768
-32768
-204
357
-2234
32767
-32768
32767
32767
32767
2460
1089
-1816
-2030
17120
12
-32768
274
32767
-1855
-14752
32767
32767
127
-922
-5604
-9296
-700
32767
-32768
-32768
-32768
-1160
-1662
-32768
32767
32767
32767
5124
-32768
32767
32767
32767
3330
1483
-999
32767
32767
-1490
-1152
32767
208
32767
-32768
-32768
-32768
32767
-6988
-18944
-257
32767
-1761
1131
1586
980
-32768
3000
-32768
741
-32768
-32768
4100
32767
-32768
-7936
498
-1803
-32768
32767
32767
556
32767
32767
-32768
-14168
-32768
-18048
1141
2506
1753
1366
-32768
32767
-32768
228
-270
-4940
-901
-24480
-32768
-15552
-1811
32767
-13624
818
32767
-1425
-800
-8768
-1170
-1405
-1619
32767
-602
32767
1324
-450
-32768
-576
32767
32767
1095
-32768
-15712
-492
-32768
192
29488
32767
-8608
-32768
239
32767
32767
-1010
-32768
-32768
-9552
-4320
-24336
32767
-32768
1114
32767
1051
32767
-8200
-32112
-777
32767
-58
-32768
32767
32767
32767
-26288
-32768
-1348
-32768
32767
-598
32767
2076
-32768
-521
-32768
1895
-2186
-808
1589
-32768
32767
32767
32767
-2017
32767
-4884
-22480
32767
-2036
32767
32767
1258
-2300
-586
688
-1531
32767
-32768
1357
-32768
32767
-32768
-4904
-1185
151
32767
-2234
32767
32767
141
-5952
-32768
32767
-32768
-1838
-4216
-32768
-807
-24032
-331
26880
32767
3866
-2410
32767
-32768
-32768
-2350
-32288
-32768
32767
-2612
-11368
-32768
868
1956
-1488
32767
-3032
32767
-32768
32767
-15368
-32
-22960
32767
-1777
-32768
-13912
