32767
32767
-32768
-32768
-32768
32767
32767
-32768
-32768
-32768
32767
32767
-32768
-32768
-32768
32767
32767
-32768
-32768
-32768
32767
32767
-32768
-32768
-32768
32767
32767
-32768
-32768
-32768
32767
32767
-32768
-32768
-32768
32767
32767
-32768
-32768
-32768
32767
32767
-32768
-32768
-32768
32767
32767
-32768
-32768
-32768
32767
32767
-32768
-32768
-32768
32767
32767
-32768
-32768
-32768
32767
32767
-32496
-32768
-32768
32767
32767
-32768
-32768
-12104
32767
32767
-32768
-32768
-5540
32767
32767
-32768
-32768
-28416
32767
32767
-32768
-32768
-25328
32767
32767
-32768
-32768
-32768
32767
32767
-32768
-32768
-19200
32767
32767
-32768
-32768
-32768
32767
32767
-32768
-32768
-23632
32767
32767
-32768
-32768
-32768
32767
32767
-32768
-32768
-25680
32767
32767
-27824
-20608
15784
32767
32767
28272
-21632
11576
32767
32767
-3590
-32768
-32768
32767
32767
23008
-32768
-27920
32767
32767
32767
-32768
-32768
32767
32767
32767
-32768
-32768
32767
32767
32767
-32768
-32768
32767
32767
32767
-32768
-30848
32767
32767
32767
-32768
-3420
32767
32767
32767
-32768
-3782
32767
32767
0
-32768
32767
32767
32767
0
-32768
32767
32767
32767
0
-32768
-32768
32767
32767
0
-32768
-32768
32767
32767
0
-32768
-32768
32767
32767
0
-32768
-32768
