-7724
25648
32767
3202
3408
7596
-17024
6168
11864
-3446
-32768
-8076
828
-32768
-32768
-8752
-240
-32768
-4092
-5360
32767
-1404
3348
-1895
7132
3218
-6296
32767
294
32767
-6292
-10184
25648
32767
-3438
15592
-13688
1382
32767
-254
-333
-27552
10776
-3396
-21008
13152
-7580
-6644
-19296
2880
-5324
-9240
22896
32767
-14672
32767
-12528
-2210
-901
-32768
-1878
-10560
5516
582
-32768
-1292
32767
-9432
9456
-32768
32767
-1248
11416
1355
-4172
2288
-32768
-8720
-4312
32767
9888
9616
-3072
843
-32768
32767
-14696
-3304
32767
-32768
-582
-32768
1100
-8584
32767
32767
13504
-8472
5376
-2934
32767
-12952
-4256
4676
32767
6208
31744
-4052
30816
10752
274
362
-7476
-9840
-4396
-26816
2298
32767
1652
-1754
-14568
1274
-14384
-1614
-5036
-32768
-32768
32767
-7048
7972
-12448
-1507
13552
-19952
-9528
-3440
12744
786
-16912
-16608
32767
-19552
-14736
-9384
17472
-12280
-873
32767
-6228
-9520
-32768
-10456
13944
-25888
2298
732
-28928
1978
-17760
32767
-2968
14840
3432
-1707
-984
-10504
2043
32767
15432
-19408
-8584
-32768
-11088
-32768
786
-32768
-4736
-10832
32767
-8712
-8084
25904
-7448
32767
-32768
18240
-19
-662
8088
20880
-5620
32767
495
32767
-10472
-14720
-1208
32767
-8384
-32768
-16800
32767
-32768
-10808
-32768
21536
-9560
32767
-32768
-1206
2154
-10136
-3560
276
4356
-1627
-7892
-6308
-32768
-32768
-32768
-32768
-3968
31600
10480
32767
-9384
-5868
3408
-32768
-14096
-1531
156
-5040
-6444
19584
6680
15432
-8560
-32768
-32768
-11904
-5576
6356
32767
-2434
-32768
32767
-7240
-3010
-14360
32767
-18656
-2330
11800
-32768
-1351
32767
22816
32767
-4844
-5948
8480
32767
5388
-8456
7236
12752
-20976
32767
1142
3148
13840
14480
-10744
2528
-32768
6692
32767
32767
11120
17872
497
251
-32768
-4916
11584
23120
-4824
-32768
8528
7572
5164
1893
-15280
-32768
13344
-5920
32767
-4276
-2958
-2696
32767
-12984
-2952
-29440
-2932
5244
-32768
506
5632
-1319
-32768
32464
-1172
-23200
-1236
32767
-17968
-4760
32767
-32768
-2150
4816
-32768
-10064
-16048
-32768
11424
-7480
7780
-2998
-32768
-2636
-9864
-10144
-32768
6652
-8272
-7396
7220
25760
-2184
-32768
27808
-32768
-9744
-3950
2312
-2700
-7200
4488
-11248
-1813
32767
-5376
686
-6388
32767
-8904
2748
12944
3038
535
32767
1624
4660
-22816
14936
-3494
4940
-6248
32767
-18352
12112
-3384
32767
3858
-9864
28432
-13944
-4240
22592
-10224
-9640
-152
29312
-7908
-32768
11336
-970
-32768
-32768
-10928
19600
-2818
32767
-5868
1748
-1962
235
-32768
-3848
-18000
-1407
-32768
-4292
5456
-23184
5616
-1925
-11504
-8896
32767
21056
32767
-7444
8280
-32768
-12960
-3276
21520
-1535
1437
1028
-18688
-12000
-10224
32767
-1512
-1056
-2860
9768
-254
-5420
32767
-4648
-3362
32767
-2888
-32768
-18032
-2092
1139
3860
-7660
-3500
-7828
15216
11464
902
-8424
3782
17072
886
-25472
35
-13224
-27152
-23936
6284
-32768
-6896
13064
-482
64
19008
-6704
5256
-4188
-3470
-11328
-32768
3490
-8336
-3092
2866
-28512
-7808
-32768
-2212
32767
-13304
-14624
561
-32768
-2850
-32768
11
-32768
25008
-19296
3804
-7612
-4912
17056
32767
-11648
-4596
-1101
-3282
-7176
1521
2508
-3762
-10904
-5664
-32768
32767
-15968
-10144
-32768
-2102
-7888
32767
-3140
-1542
32767
2712
-6864
6620
-2346
4348
-1848
-31440
-5940
83
-13760
14104
-8800
19680
-800
32767
4104
32767
-32768
14336
32767
-19904
-27392
2644
-5692
10280
-32768
-6824
9648
4636
32767
22032
-7052
-30
24064
7132
-9336
-1704
-14976
-18256
32767
-11784
-3068
-13392
7376
-6656
6732
32767
2132
-3128
-32768
13184
13184
433
-2286
-32768
6952
-20640
-4324
-9504
14104
-24720
-4352
-725
5848
16960
-30
-18048
-3318
-3364
-5664
522
4628
7436
-5900
-3000
1888
-12040
-6564
12752
-3618
-10464
-8848
11904
3768
-6976
209
-5084
-32768
-4168
-12608
32767
30048
-6092
-9408
32767
-5736
2132
-4732
-5528
-5860
-3158
-614
-1004
-4560
-12016
32767
4000
-972
-8968
-3210
20672
19904
-13936
-20112
29280
24208
-2568
3500
-5804
-9384
-1209
-12872
-16800
9840
-10144
-6496
6128
-4708
-19936
10232
-128
10280
-6084
-8640
-19072
8
-721
-8864
5600
-1352
-14664
26384
-17760
-4224
296
-2726
-32768
-890
-8520
9112
3486
-2892
12000
19552
-2734
-11648
2086
-9824
4852
4436
6012
11656
-32000
7840
12800
-6100
-966
3046
-4268
-2636
-948
-19536
-687
2134
6188
-13144
3412
5576
4896
-1676
-13448
6264
6700
-32768
32767
-32768
-2312
3494
-9440
6920
-2552
32767
-24704
2846
12648
5556
-6760
19376
-32688
-1466
-15200
-8264
5148
-5512
-2364
32767
-6416
487
32767
-520
-6456
-13216
-1483
193
-7300
-5820
-4078
-2894
13496
7096
2348
-5344
-15752
2570
-8400
-9712
2358
-10008
-1664
19568
-16272
29872
-1791
7204
5044
-4008
-32768
2560
32767
-11336
4260
32767
-17056
9328
-14304
-2400
-19952
-8536
-25840
20624
-8108
18656
-9752
-8640
-14320
-14720
-8824
32767
26448
3718
6648
2078
25872
2066
-7256
-12208
1956
-4572
-6336
-3622
-2392
-5508
724
-6868
-3470
-4512
-32768
32767
480
-32768
-9080
2174
4000
-9080
-10632
24384
-32768
-15880
-18048
-11120
2788
-10000
832
-5732
4400
-564
464
-174
-15744
-4540
7624
6352
26288
-5888
32767
-32768
-11272
32767
-7820
-307
4184
2272
6024
32767
-8920
-20816
-5092
32767
-11872
-2538
15184
10224
-18544
-20112
4288
-5976
25536
-4944
-2770
14024
10208
6960
4380
11312
-5040
-5084
-8344
-10360
-32768
10776
950
-2540
-10440
2764
-32768
13216
-1939
-2206
-32768
-16152
-2824
-5888
7408
-32768
-315
-6540
-32768
-2874
-7204
1675
-32768
-32768
-5352
-32768
-2045
-2254
-5048
5040
1853
-16216
23616
-5320
-3176
-7808
-1825
32767
-81
-6756
11880
4428
5488
-7288
-6948
-6504
10768
-32768
-407
-594
6108
-2178
2178
50
-14144
-13864
1456
-3430
-11616
-3212
2640
-21232
-7696
-32768
349
32767
1060
-19088
2978
1208
15064
-12256
21840
-11056
2064
-775
-154
-2874
32767
-2176
970
19392
-7572
8004
6940
-24320
-2120
32767
14120
-4352
6900
24640
-32768
-24784
11320
2110
28464
10400
8076
-662
-2158
3160
7840
-7460
-711
-685
-14408
-3074
-3426
-32768
-12672
-32768
-20464
-6648
16752
595
-31248
610
-1962
-6080
-3764
-11080
1090
-21360
10040
32767
-20688
-5480
17936
-4184
10608
-9080
-7700
-32768
32767
-6744
-3638
-3442
-2192
21696
1958
-203
-10304
-5976
6400
-4916
2618
195
-32768
3804
-4628
3866
7064
-4740
4904
-32768
-4456
-2
3820
-3266
-25088
1400
-8592
1226
-4868
-808
-13440
-2234
13960
11688
-11752
-10096
-3216
-11584
5708
-9520
621
5832
3150
5780
270
-5824
-6352
-5204
-32768
-3140
-32768
8536
32767
-24256
306
-32768
28944
1521
-3738
-3954
11552
-20704
-3746
32767
-8824
-2060
-385
-16184
-4864
-14368
-2604
-30688
32767
32767
-4400
-2158
-775
3116
-11496
32767
-3756
752
-1048
-16432
-7200
-6944
-4340
-410
-4344
-3846
-25632
-32768
32767
-9608
-7168
32767
-10632
17760
3058
754
-8536
-32768
-3958
-1303
2476
-2810
-1119
-2350
-4128
-1308
-5188
-32768
-32768
-3356
-22656
-10592
5868
11768
-7600
32767
-2252
32767
18656
32767
14816
-1972
-7064
9296
-7504
-3786
6328
32767
-32768
-983
-855
-32768
-3898
19
-8640
-4324
-20448
4336
7404
-4908
-25008
1327
-11160
1272
19104
-7692
28032
32767
7276
6832
3946
-1346
-5804
-5140
19232
-292
5668
32767
-28352
8768
816
-7588
32767
-14352
7684
-3610
-32256
1695
-4388
12304
32767
25312
15328
32767
1702
800
32767
4720
-9256
2432
-29168
5936
542
17072
-19696
32767
-4720
3746
26736
16880
-8392
-3512
-6
3834
-32768
32767
-1106
-32768
-32768
4120
22368
-765
-3336
-3992
32767
2588
-15
572
-32768
-1612
-32768
32767
-29728
32767
1489
-32768
-10016
-6896
-32768
7388
-32768
32767
-14568
-7836
4760
-32768
9344
2732
-9960
20912
-3844
-193
-8984
-18656
624
32767
-8528
-19296
22256
-4980
-32768
4672
-9808
3108
-32768
-12216
12008
-29088
1861
-2043
-32768
-32768
-19632
-2772
25808
-6428
-32768
-15000
529
32767
-32768
8688
-17184
3956
-32768
-4844
8132
-359
290
-32768
-8840
-28992
13184
32767
-2652
-4664
-8624
-20064
-6204
1321
-3584
32767
-20640
-32768
12104
32767
13296
-16896
4164
16512
-22192
-582
6724
-1489
32767
-32768
32767
-28976
13808
18896
-15968
1729
-2218
-32768
2448
4340
-1440
-11968
-32768
-20272
3042
10608
-11040
4196
1390
32767
-32768
-14408
22304
15944
12064
7076
591
-234
32767
-4192
27792
32767
11696
-32768
-17936
32767
-32768
-9584
-32768
-5584
-32768
11576
2414
32767
-25888
-19536
14384
11104
7016
16912
5132
32767
290
-18272
-32768
7232
-13680
2144
8432
32767
32767
-32768
32767
-24992
-32768
-19808
-25264
32767
19936
384
2184
-10048
9816
-9288
-1972
3210
-1738
-937
-790
-32768
32767
-32768
7584
32767
-15104
-32768
32767
-253
23456
32767
-1356
-5152
-398
8872
-13024
-14576
-13152
32767
-12424
-32768
32767
16656
2574
-32768
32767
-10144
-17440
32767
-3636
-32768
6336
32767
-31312
-4720
-7388
32767
57
-32768
-31504
32767
32767
26208
-160
-29216
3950
-3910
4396
-32768
-32768
8712
2212
17568
4304
-16608
5168
9976
-32768
4384
32767
32767
-28224
2230
-5044
-3002
18592
-5412
5360
-32768
-1027
23376
-32768
-306
32767
19120
7680
-32768
-4100
-1977
-29632
342
-1861
-26192
32767
4236
-4760
-32768
-1008
-826
-17712
-107
-8384
3964
-32768
4532
-1866
-13400
-11176
-32768
-32768
12072
-3674
-13328
-1494
-3596
-32768
6356
20016
32767
-32768
-20176
-7372
-5788
32767
6684
614
2664
-32768
2120
1155
-156
-13320
-32768
-8880
32767
5664
-32768
-4652
-6488
1398
-8084
7236
4836
-32768
-12392
-32768
-3384
-2019
-1931
32767
-3110
-1122
8552
5912
-3824
32767
-32768
32767
32767
-1511
908
-9784
-32768
-32768
-10456
7060
26400
-32768
-16736
-15432
-32768
7552
-5296
-32768
-32768
-3964
-7956
746
-2976
-32768
8448
-7416
32767
-5884
9952
-7788
1924
-32768
-2532
-5656
-7412
-5652
-13976
-4932
-11448
9208
32767
855
-23424
19392
3848
-5896
-2528
-9936
-32768
-1870
32767
-2432
-32768
-18144
-22608
4096
-32768
-10784
4348
7004
-11880
1892
-14040
32767
5064
-6332
308
-6888
-3622
-7764
32767
-5864
-1557
-16624
-7392
-32768
32767
2512
-3046
5980
-9664
-1513
4820
32767
415
-6280
-7356
2804
-32768
5368
16200
-8864
-958
-2750
-32768
3422
-31008
-6568
10680
-9448
260
-32768
-279
32767
2666
450
32767
-32768
-20016
1218
-5144
-818
1497
-456
-32768
-22
-6472
2658
15184
-2848
-71
3738
32767
-574
-22176
3154
-21984
32767
5284
-32768
-8352
32767
-7892
-83
-12032
-13208
-8224
1622
8128
-1987
-23152
-9808
2298
-32768
-32768
-3214
30992
-2730
465
32767
-3212
816
-32768
-5892
-6020
6640
216
3336
-8688
25824
32767
-26960
-15840
32767
9640
779
2550
-32768
1673
-32768
32767
2300
32767
-27664
-32768
-4816
-210
4332
5264
-3122
-32768
9408
32767
-22640
6876
-7852
-286
-3714
-5072
-498
-32768
-32768
32767
-5120
-32768
4380
-8968
-57
19216
32767
-1567
12216
-32768
-32768
4004
3404
-13224
3024
-17504
-32768
-18848
79
-32768
9888
-5840
10568
5024
12984
16288
2312
1752
-32768
5436
8088
-4660
32767
-2116
-660
-12856
1587
-272
12296
2786
3398
6916
3654
2762
2027
2004
-2524
-28320
-2366
6700
3626
-32768
-914
12296
32767
5552
435
-32768
-5188
8448
-1667
4736
19888
895
1783
14968
8496
2684
-928
943
-26256
-19728
-1959
-32768
15816
-30176
-211
4556
-3632
3822
-4488
7368
-3866
13208
12856
2138
7064
30224
-24912
4500
-5972
9536
8188
3088
22720
-5024
-10000
32767
309
14
12040
435
32767
7052
-32768
7940
-32768
12616
-32768
1882
-1523
-10352
-32768
-3970
-3890
3014
276
-19680
20656
9968
-10808
-32768
-13800
-9616
3976
-6772
-31136
-9040
-5944
6168
-1647
-15928
1680
15544
9912
25264
-1425
-770
-5060
-3218
6544
-1558
7596
-32768
-2918
-32768
-3032
-2394
-10080
-2606
7936
-32768
11792
784
9440
-606
862
11704
-32768
32767
5888
-8864
-380
-898
7736
12904
6152
-3054
-32768
-3864
6964
-13424
-13304
5212
8904
-3284
744
-3316
-32768
-7416
-9056
2608
2332
-4552
-939
-3214
2804
-982
5172
14864
3310
28288
-11688
-19056
-32768
-4616
32767
3936
14752
-26560
5920
32767
4376
-4940
3776
-6356
32767
25120
-4656
-1452
840
-32768
-32768
5048
-7548
-32768
-8584
32767
32767
-28560
-5528
-3136
-1258
404
11400
-32768
12640
-5828
973
5288
-2724
-5604
2308
12408
12816
578
7424
32767
-32768
-19072
-2232
1642
-12128
5160
-18176
-9584
-1323
32767
4460
5536
4620
5204
3616
-9200
32767
17248
6644
-19552
-2774
10088
4836
-32768
-32768
12288
32767
-32768
-586
-32768
-3234
32767
-6452
-4680
-3602
-32768
-1121
-26768
-1399
32767
-32768
3484
3618
-9288
-8472
6864
10288
5512
9432
-10816
-5888
7096
-1664
-4364
-344
-12040
13656
837
-16496
7476
32767
85
-6648
-5524
32767
-15120
1127
-1212
14736
-32768
32767
-6892
-2588
21024
12008
-32768
6956
-1582
32767
-13112
1026
3416
-32768
2214
8192
32767
-1999
2524
-8976
-1174
2944
-3078
12304
-4228
1069
-5400
-4116
32767
8568
7564
-32768
-14784
-991
-12352
9736
-1794
9960
32767
11912
-3554
3158
-2146
-2978
6932
-770
-9688
32767
5980
-3650
-1253
4600
12160
-8104
-32768
20848
620
132
-11104
-9424
998
-8816
-1059
24016
-13864
-8528
22
-3666
13576
30992
-7588
4800
10824
-4328
-3462
-912
5052
29824
-813
453
-10752
22576
14160
-32768
17984
-3728
1301
-28352
-32768
-13552
-7680
-979
-360
-29056
-13216
-2602
-5632
-9520
1664
-31312
8392
-6888
32767
14656
-256
3648
1399
-32768
-7876
-252
-5020
1876
-8616
-3172
-16688
10824
32767
-6108
5068
-15824
852
-6300
-2262
646
32767
-7636
16360
-588
-14152
572
24320
7728
32320
-5108
-2346
2318
-3844
2396
-3500
32767
-1644
-1271
-12152
1102
4580
8808
32767
1571
-4236
-20656
4400
-4708
-2642
-3232
-2154
-2898
2696
6472
2878
-32768
-1541
5100
-257
-6752
-5840
4212
3348
-14752
-689
2624
-20512
4852
870
-689
22208
31584
8552
32767
3846
-32768
-1322
-1500
32767
8036
-13320
-1707
-6872
18528
-13296
-9656
32767
-5916
-32768
-778
-1889
-6656
19216
-13712
15632
32767
-32768
-27648
-2648
3212
-17888
17200
15120
4904
-4264
-2526
-4788
5216
1717
-4716
6484
-8696
-1396
1470
32767
11088
-32768
-678
23216
6864
12712
1299
-7812
-980
-3330
-3654
-2978
5172
-2454
7808
13272
-10512
-8768
-12016
-32768
32767
6824
1904
-4624
11080
2328
-9640
4788
-1454
-32768
10440
-9400
31456
-423
204
32767
-4992
254
3136
32767
32767
-2148
-4936
-17264
-13776
9736
-8752
-1442
-24
-32768
-3042
5968
-1746
-7940
-4078
-10776
16056
135
-1477
32767
10824
11368
-4308
4464
-10440
-14064
6656
522
-1116
-32768
-32768
-16768
-32768
-14344
32767
28048
8672
485
32767
-23680
4078
32767
32767
-32656
-32320
-32768
2860
4276
-32768
-2634
-6908
484
9464
-2338
-2916
-32768
-1689
-32768
-3286
9408
32767
-32768
2878
32767
700
-6920
-25072
32767
2740
32767
-3598
-8296
-7636
-13920
5448
-14496
1893
9432
-3462
-6472
2007
-32768
19232
-32768
24208
-32768
376
22144
-937
11408
18000
-32768
32767
32767
-32768
-726
2402
32767
-32768
-21952
1974
13696
2678
7344
32767
-15000
-914
-32768
-6564
-7212
-4776
7012
-32768
-32768
-1041
16200
-32768
32767
32767
9544
-5180
-467
16136
32767
8960
6096
32767
-2020
27600
32767
-3048
32767
32767
32767
-286
3022
32767
5324
-9088
-10776
-18624
29824
-4736
28688
20976
32767
-5492
7108
32767
18864
-1208
1993
-212
32767
-32768
-32768
-27504
-32768
32767
6344
-5380
-32768
11368
2686
4740
-940
-32768
4000
-32768
-19136
1954
-29136
-439
8768
5228
-32768
-5216
1414
-32768
-4372
-32768
17744
5300
-5724
4684
-2996
-5272
-706
32767
-5132
-16512
-22528
-15392
5360
-872
-32768
-2142
3036
-1354
32767
3316
13664
-4416
32767
20768
673
32767
31184
-32768
-32768
-14272
30832
32767
-9424
-8232
-8896
32767
-5056
-4576
32767
-3312
32767
6908
9840
409
32767
-132
32767
-32768
32767
32767
11528
-32768
-32768
6796
-32768
32767
-2382
3764
3694
-12624
-112
-17072
-1657
-10528
154
32767
-32768
32767
-32768
-17536
32767
2446
-5100
32767
-3994
-32768
32767
7436
681
11552
-7336
-32768
-6220
-32768
3452
-4050
-32768
6768
-7976
8720
-14536
32767
2820
-32768
32767
-6780
-32768
-17344
32767
-6404
-3302
-160
32767
2672
32448
7724
-32768
32767
-17520
-4856
32767
32767
11048
-4596
11840
25776
-6260
9072
-12400
-32768
-7128
-22528
-19888
17280
1599
32767
31552
15992
3860
1984
1225
32767
-3578
32767
-32768
2005
-32768
-32768
10168
-32768
-32768
-26832
32767
-477
-2574
7496
213
-8312
5512
-32768
-20160
-1384
32767
1014
6388
-32768
1490
-20400
-3990
32176
8872
-3778
32767
-13488
32767
27600
5792
-32768
32767
-23456
-32768
32767
-1745
-32768
-32768
-1250
4796
-26272
-32768
32767
-7868
2846
19536
-32768
-10440
-336
-3670
9152
-16104
2954
32767
-8496
32767
3464
-5076
-18448
-11312
-21056
-15872
28128
32767
32767
-4058
-1819
32767
32767
2538
-20816
13920
3748
398
-8832
14760
-5116
-32768
-834
-1508
18816
32767
-32768
-15632
269
29312
-32768
-32768
-16560
8160
20480
-2534
-22080
32767
7024
-2850
-6240
-15216
32767
32767
6652
-32768
-7232
-32768
-32768
-5380
32767
1389
-11392
5112
-9072
25776
-5916
-1524
13648
289
-27328
11688
-32768
-29760
-12344
6552
836
-32768
-32768
-29392
-1190
22752
32767
-14968
16304
32767
3582
1761
-1081
4804
7732
716
19808
9184
1312
-32768
13288
-20816
-32768
32767
14072
2972
-32768
-32768
-32768
-4964
-14240
-683
2496
-24480
-1755
-6728
-32768
-3640
8208
134
2802
32767
5192
-32768
-5820
-1258
14624
32767
-17424
32767
-3074
32336
-11120
-32768
-32768
1357
32767
-32768
7336
32767
32767
17712
-514
5664
32767
-15824
5000
32767
-2570
32767
-22768
10200
-5076
-32768
630
32767
-32768
27744
-5976
13760
-32768
-6432
18624
-32768
-32768
-5108
-7908
-6788
1812
-15056
-11336
-9328
-2004
-32768
32767
-32768
-25824
32767
3276
-32768
-9424
16376
32767
3138
-32768
-32768
-12160
3778
-4660
475
-13648
11960
32767
-7500
13648
-32768
-32768
-1182
9408
-19440
32767
-32768
32767
-32768
-13176
-32768
2364
19344
-32768
-2814
-2194
32767
-6172
32767
-32768
-32768
-32768
3244
4856
32767
11712
-8784
3740
-12408
32767
-32768
8280
31888
22832
-12456
-988
12328
6276
-7076
-32768
32767
-26496
13800
-210
14808
32767
-32768
-32768
-3952
-3336
32767
-32768
4636
-24656
-21776
-32768
8760
12272
-1080
27120
-10584
-32704
7172
32767
-6296
-32768
-32768
1144
2594
32767
-10368
-2206
-6616
-22400
-2336
-1695
-32768
-3112
-32768
1138
7452
32767
32767
796
32767
32767
4972
4272
-32768
690
18192
4240
-6436
-21664
-14968
-12400
-32768
-32768
-3310
-28784
-21872
11520
2916
20432
32767
-21136
-28096
-23552
-32768
-5316
1210
-5776
-25712
32767
32767
-32768
-24512
-32768
-32768
-32768
-16832
5732
5084
-10184
-2464
10792
-10968
-15512
32767
-4968
-10040
32767
32767
-32768
734
32767
12472
-32768
32767
32767
-12904
-30160
-636
-28512
32767
4552
2648
13384
-718
32767
32767
-32768
-32768
-32768
32767
-23680
-5128
-17968
4292
-842
4042
-1904
32767
-2326
-10704
13744
-32768
2778
7868
32767
648
-2934
-908
-5724
-32768
32767
-32768
-9384
32767
32767
11320
6432
32767
9056
4496
2098
-12224
1736
-4066
32767
1891
-11040
-32768
5228
-560
6824
32767
4042
-7992
-32768
2168
-32768
8560
-27760
-7368
8952
3554
-8584
-3402
-32768
-1342
2984
2094
3174
-32768
2054
32767
-10616
-275
-3584
13176
4868
-3762
754
2426
-10280
3242
32767
-1215
-32768
-32768
-32032
-32768
19648
-16864
-10776
2632
-32768
28592
-12360
-32768
353
-32768
-15104
10808
3790
32767
-18656
32767
17280
-32768
32767
4216
32767
-32112
2138
32767
32767
-4328
-3598
-3040
-14072
-2206
-24000
3126
-20864
-4030
32767
32767
32767
32767
-1849
-32768
-5668
32767
-4124
-17936
32767
-32768
12264
9360
2880
-4280
-23568
-30816
-32768
-7400
-9664
17856
9616
-8576
16048
29216
32767
1929
32767
-32768
4020
-32768
-7072
32767
-16224
-15648
-3594
-32768
2506
32767
3438
-32768
32767
624
-9544
-32768
8960
13000
722
18912
-3236
-14144
5236
2378
-32768
-20912
-32768
-29264
32767
-3104
32767
2234
32767
18464
-8904
-7736
-32768
-32768
32767
-32768
5612
32767
-32768
-300
-5108
-32768
-6224
32767
11640
4780
32767
6020
-5812
-12608
-32768
13880
-4392
-32768
-10496
-5304
-32768
-18048
-4520
-2580
26992
-3874
-4408
32767
-13528
-32768
11136
5860
32767
-32768
-13656
-32768
32767
-2864
-27872
32767
-22912
-1465
-25152
-20576
28208
-4772
-4412
20128
7920
-5748
-8720
-32768
-9560
10096
12248
-32768
11920
-3558
-32768
1566
2810
-10672
17152
7076
23280
4108
4900
-25168
-2196
-32768
-32768
-500
-12856
17248
6544
3126
6208
3160
949
32767
-12544
-3202
7320
18176
-32768
20416
-9536
27984
32767
32767
32767
16880
2298
-11264
-32768
-32768
1526
-23376
32767
-17136
-32768
32767
6080
4128
-22816
-32768
-32768
-10496
-32768
-1432
2400
-8004
688
26768
169
8120
2070
24944
6172
356
32767
-32736
-15776
5504
466
-32768
-32768
-32768
-11296
-32768
-32768
-8936
7596
-25264
-32768
2170
-312
-4804
-3990
4796
-32768
24384
1396
-31328
9808
-25408
32767
-32768
-175
4776
32767
-30288
-25296
-32768
2124
-5564
-3558
-13088
-296
-4536
-32768
3442
7048
2458
1384
-32768
641
-13600
-17184
-29120
16128
-28768
-9248
14272
-9976
-31888
32767
-5212
-32768
-32768
32767
13904
-2334
32767
22688
5016
-1577
-638
-32768
15944
-15736
32767
323
-32768
-12296
19568
-1753
32767
-32768
32767
-7244
-11656
-32768
-6816
16928
2956
-32768
-32768
-32768
-14272
-4058
9768
83
81
-12632
-10376
-3374
-6240
32767
32767
32767
32767
-816
-32768
-4920
17344
32767
-32768
32767
32767
-8036
-26464
8480
-7744
-10952
32767
-32768
-32768
8600
32767
32767
-10376
6724
-19152
-32768
-28016
32767
-32768
-397
32767
21040
-32768
-21344
-7868
9472
-32768
-14144
-24560
-4388
-32768
32767
-10096
2362
32767
-8044
-9696
-360
7200
-10592
-32768
-16016
7792
5824
-20640
-3782
-2782
-2252
6160
32767
1948
-32768
10240
-15832
-29232
-32768
-32768
-32768
-30576
1382
-32768
-32768
51
2914
1501
6436
10568
2436
1775
482
-461
-192
13808
-32768
2628
1113
32767
181
4468
18544
17
782
1542
-717
453
220
32767
-1121
32767
1332
5400
32767
32767
-208
1564
2164
1614
26208
32767
-2424
8944
-2112
1360
926
-1339
-678
2246
32767
3552
1361
-556
2994
1132
14832
32767
-615
-32768
-1368
3900
2120
-806
1442
2576
16528
32767
-32768
1043
1575
14832
-32768
-184
-616
-854
-1183
832
31568
-526
864
32767
3688
542
3924
-850
-13440
9288
4136
1723
32767
32767
6012
3030
-508
2041
21632
32767
119
1179
32767
2148
-32768
22608
3216
32767
32767
-32768
856
1562
-32768
-1419
-3126
750
1573
11288
2844
20896
3506
32767
256
1538
-12584
4828
1112
1163
2292
32767
-32768
-32768
729
32767
17648
-52
-10
32767
2234
-1079
1530
-1048
32767
1834
32767
-1204
1106
1790
1232
-276
724
-32768
-210
-227
8544
1333
32767
4312
-125
2194
1824
620
-493
12904
32767
2364
3006
-666
214
948
-435
32767
15816
1347
1789
26384
2154
5764
-868
32767
1635
277
-11488
32767
32767
32767
881
-2310
4372
-2486
896
2376
-26976
20096
425
32767
-892
32767
4172
-4268
1702
-32768
782
-32768
32767
-32768
32767
12224
32767
1120
-4116
-32768
32767
1061
-918
5128
1922
1350
-1484
-946
-638
1843
3984
32767
-32768
-32768
-1046
32767
-1072
2196
32767
2332
10400
2194
1244
1064
626
-262
-1568
1550
32767
121
3942
679
27152
105
1520
2021
32767
-772
32767
32767
7096
32767
-996
32767
2882
2088
-542
-32768
-1203
7508
4600
-32768
-32768
3414
1374
16608
14672
10312
1780
874
-1751
10328
2084
556
2548
-983
-5080
2632
6696
776
32767
32767
2482
3520
1246
-2272
32767
79
32767
216
-1724
32767
32767
738
4018
-261
1750
31376
4156
47
3948
1802
-1506
-1544
16384
12832
6148
-32768
1699
-1462
27856
132
-854
940
19024
992
-465
32767
2798
6848
15560
2964
32767
32767
-1256
32767
22864
-880
32767
32767
-1176
6924
-673
5084
32767
2280
-5732
4844
32767
-1102
1660
-1295
-2172
4912
1732
32767
4324
32767
71
-833
2364
2604
9336
2776
2850
32767
-3430
3072
2852
-5636
-32768
212
2644
546
-1035
-2982
11840
-2037
-931
32767
3438
1920
-592
-1830
32767
32767
-2858
-9848
-27776
16576
8808
1120
3510
-1539
1811
32767
-423
-1310
3122
1815
-32768
32767
-2690
32767
32767
32767
1193
64
29056
-705
1212
-1595
552
7812
2010
8496
-339
32767
2680
2848
-32768
-962
2218
2450
1251
32767
32767
32767
1730
32767
32767
11936
-1500
32767
9064
2014
130
-461
5612
1830
-32768
11048
1904
1234
362
4556
5768
-32768
2160
1306
20416
-61
30976
-5004
2114
1021
179
-825
2132
121
32767
-1083
1014
1703
4220
-1353
2864
32767
58
-1146
32352
10680
868
19904
862
18208
3292
-669
-32768
3518
-32768
-2084
-410
32767
5156
-760
3296
1532
32767
-2394
891
-32768
302
30848
-323
-2388
770
18960
1055
-32768
32767
-32768
32767
9656
32767
-1242
-5708
-32768
32767
-134
2102
2424
2582
1628
737
-1623
-597
413
8312
-32768
32767
-32768
1060
32767
-1475
5360
32767
1000
32767
32767
-916
161
3494
-1746
1716
7988
21296
891
-906
14560
-29152
1911
-142
1736
32767
600
-32768
5112
892
32767
885
32767
-252
1654
-1068
-32768
951
12344
686
-32768
32767
-331
-973
32767
32767
444
4288
-3510
-11248
8368
-1979
3372
-7576
2039
1781
1575
1326
-1171
32416
29472
24
219
1515
3094
-303
2486
32767
930
3730
32767
-22624
-2270
-948
160
8224
13712
-2894
-854
-1224
-1069
-1028
5208
-32768
1862
1306
-32768
-164
3150
32767
1308
-56
-1127
-982
-2958
-287
32767
643
-32768
5220
3748
32767
32767
-568
30208
32767
1817
9400
32767
1265
2566
1339
1144
-4172
1061
-206
14736
-2204
774
916
-2052
-931
-32768
-6308
32767
5292
27296
602
2642
-70
-151
4072
1816
29312
1044
32767
744
2388
32767
-32768
-542
1884
-1700
5308
902
-2232
365
704
32767
910
71
814
4544
32767
1026
32767
-2
17392
-32768
12272
2548
49
-2434
-22128
32767
2276
1012
32767
-11336
31312
32767
3842
32767
-17392
-9240
-303
672
-32768
1818
756
933
-1560
-6152
480
6464
2960
32767
-1645
2698
32767
2170
-326
-1907
554
-2694
-32768
32767
1338
32767
-5872
1898
-1405
32767
4140
355
3262
-200
17792
3100
32767
32767
-984
1984
-377
-56
2128
32767
2628
-1839
-193
836
4156
1908
2458
-1105
9240
1453
170
-465
1158
-303
1527
-268
-337
10168
-1138
30064
21
-187
586
32767
293
-4296
381
7728
-32768
4284
28448
-592
-29664
11584
1527
32767
886
1214
-947
1631
32767
456
-5668
32767
1518
32767
10664
3026
-10
-32768
899
32767
17824
32767
-32768
2734
32767
1397
-4232
32767
-25728
-871
860
9560
4860
2764
940
-1699
2164
193
8328
32767
-32768
1157
2246
32767
691
9616
14016
3998
32767
-28528
2368
-2
-778
-1184
4248
3362
32767
2878
666
32767
32767
2302
225
-21888
32767
-152
32767
32767
3604
32767
1562
-32768
764
1176
1550
32767
692
7712
548
-32768
-32768
952
1066
32767
1850
8176
-769
140
11264
-4104
1351
-5240
5212
1251
2580
2972
32767
-41
-32768
2770
16176
-1192
2042
3046
32767
1040
-14224
-617
32767
32767
-21136
1821
1975
-2648
1471
-32768
-826
188
5104
-8672
-1670
5696
32767
8784
3222
32767
120
1768
-32768
-1540
1245
493
-3748
-1717
980
32767
1353
-32768
1060
3610
32767
32767
1580
31536
10528
2734
18144
32767
-2160
3328
758
-4100
-431
-3780
-1178
6280
-4844
1814
3260
-1153
4448
-132
409
32767
32767
32767
1147
1475
-580
-1449
3640
252
15712
2670
32767
1865
1179
32767
-32768
-357
-547
2206
2394
1270
32767
2300
-2056
27600
4280
1154
3224
7280
32767
32767
-588
-301
32767
32767
32767
1532
1223
2702
32767
-32768
2194
224
32767
-1145
32767
32767
7160
-5924
3378
32767
5500
2114
4460
4868
-625
946
-882
17568
1496
16072
335
32767
16656
4872
-402
4300
2902
2212
-794
32767
-32768
32767
1979
-348
22752
32767
-1044
32767
3452
1885
1172
-645
2017
876
-28304
-29
69
3758
1225
3456
2966
32767
3476
1146
32767
-504
-3100
32767
2274
1873
3306
2024
-261
1293
-16120
-362
8400
734
2630
2492
3188
32767
3198
-1725
-2590
-32768
761
1676
3484
10584
21360
48
-32768
1599
32767
-19936
864
32767
1548
1971
720
1314
32767
1809
795
7984
-576
32767
1354
7824
-894
27152
2770
-32768
10696
32767
32767
4592
-8408
2522
-4090
-32768
32767
3502
1242
13656
2278
966
-723
1899
3390
-5
8336
32767
32767
71
-119
32767
1093
5416
1022
3438
32767
-32768
1543
678
-5404
9
550
32767
-20752
3340
-1020
32767
32767
-168
444
-1731
32767
-374
32767
32767
-2408
-32768
-5060
-14792
5856
274
-1754
-20320
1913
1926
-847
-32768
32767
1612
-420
32767
-13320
80
1804
234
4052
21088
-1133
2886
2031
4820
1210
-53
12616
3068
32767
909
32767
-1767
6288
4788
-3368
1305
32767
1703
1503
-32768
-32768
3744
1592
1814
1325
1823
1166
2572
-9144
1035
1334
15328
32767
4224
3030
32767
109
4496
-32768
-1499
1526
1104
8632
41
-654
32767
184
32767
1655
9152
32767
32767
2448
7808
2734
-187
11176
24832
2666
12440
-501
2124
3446
2246
998
1849
10088
1567
1051
766
-3030
18304
-444
32767
6160
-32768
1428
19072
-416
1698
7044
3788
32112
6816
32767
-63
7792
4196
-32768
2602
-616
-936
4200
2108
21248
-574
1440
32767
4796
532
3196
4040
-32768
5664
6028
2182
32767
32767
6304
1893
3258
-1147
-31264
32767
1564
341
32767
-1105
2456
32767
2070
32767
1283
-32768
-650
3378
-32768
1103
1790
3218
2148
18976
2238
3254
1796
32767
645
-805
-29280
1948
308
3014
491
32767
-9408
-21840
784
32767
5912
1930
39
32767
3952
-654
3056
-783
26016
1552
-10816
2842
3312
3870
2092
215
-416
32767
769
-1682
-5020
2554
32767
-1902
-1271
3400
1327
-1165
1745
-884
-12408
2234
1419
1292
2342
-5348
-805
32767
6672
416
-846
-551
610
7892
124
32767
11016
1878
32767
171
-25328
32767
1166
-22224
-13336
333
322
1267
-32768
4384
1440
32767
254
26592
-1172
3370
2016
32767
1841
-32768
15088
-32768
32767
4496
32767
6420
-17504
-32768
32767
-1219
1539
720
4104
-310
2011
-1071
95
3002
8648
32767
-32768
-32768
-192
32767
1418
5576
32767
3534
31568
32767
229
1229
1608
-638
-1041
-70
32767
1184
4304
-10088
-1218
-230
-188
-2140
32767
2226
32767
32767
6184
32767
468
32767
2718
2556
3680
-32768
-627
19264
932
-32768
-32768
3860
1363
32767
4408
2234
-667
2332
4288
-9528
1133
2344
2802
482
2536
5452
25360
946
-17968
32767
4776
2250
772
3130
-32480
2742
32767
429
598
32767
32767
2832
2408
680
4404
20400
-1968
-818
-18992
1948
-996
-522
32767
19104
2736
32767
-1397
1851
21984
-643
373
-1326
19184
625
3436
32767
1366
32767
17840
4012
32767
32767
969
18384
-6228
112
8448
-14520
-216
-278
1659
245
32767
1305
2654
271
32767
-710
-586
-48
-2410
5636
2372
32767
-742
32767
1036
2230
2003
462
3482
6772
13920
530
-32768
2248
2294
-1350
1204
892
2382
1192
-226
816
-11672
5576
1529
32767
-4880
-321
-926
864
32767
32767
-1441
573
-7660
-355
20576
5084
-6132
-180
9992
32767
-414
-298
-516
2524
14840
32767
1658
32767
18416
32767
-1537
57
32767
1034
3930
1873
4124
2110
1706
5032
462
32767
2590
4816
-19264
2630
1285
518
2172
32767
32767
32767
-969
31392
32767
6964
-3242
32767
1128
-2712
842
1244
7200
281
32767
1576
836
2348
554
2038
4880
-32768
1850
760
-3358
-3956
32767
-1005
2204
1148
-1004
-1311
-135
30
-32768
1298
-299
826
1738
13928
1386
32767
2154
-147
13984
32767
1506
27312
21
-32768
822
3302
-32768
156
-32768
-32768
3370
32767
22112
-878
1461
1239
32767
3490
668
-5440
94
-32768
-6008
1522
1064
32767
-3008
-32768
32767
-32768
3056
2282
32767
755
-32768
32767
32767
1437
176
477
-685
388
79
-3936
1854
680
17920
-32768
32767
-32768
2290
-29072
821
2814
32767
-405
32767
32767
1042
-312
2058
19
283
713
32767
1512
4596
32767
10680
2041
-800
2702
32767
982
-32768
-11688
98
32767
-376
32767
2640
292
-181
32767
1846
22976
1741
-32768
32767
2864
-1295
-15776
32767
38
8336
6568
9200
5120
744
4692
1915
-823
560
6132
593
-1368
-32768
32767
672
962
420
2864
-9768
1273
32767
-1859
3802
32767
4668
736
-172
460
11248
4292
-3382
1124
32767
359
4236
3520
-32768
12
2404
-32768
-218
3694
32767
1032
2634
3048
3580
-233
1885
32767
-85
-32768
1660
9392
32767
32767
-88
16184
11032
-862
2368
32767
839
3894
-202
666
-6216
1373
2840
-968
10376
-160
229
644
38
1227
-8440
32767
5372
32767
1008
1859
1012
2240
5696
2640
25616
1270
32767
2648
4592
-6712
-32768
4464
2374
-448
-528
1334
-30480
746
-2
-32768
77
3028
2490
4028
32767
1493
32767
-1940
22768
32767
6340
2034
1744
786
-32768
32767
2740
2648
32767
-14416
4488
-5372
8392
32767
-1807
17440
19
-644
-32768
2916
-1529
488
403
9392
-1024
1577
254
32767
-1526
2206
32767
3208
765
2260
3024
-32768
-32768
32767
48
32767
-4140
1334
-738
32767
412
1226
-464
778
4268
-4456
32767
24512
1825
2412
4472
1823
1170
32767
-776
-160
-14416
-680
3220
-3020
1328
1451
3940
1252
1828
872
13016
1201
-1195
253
167
25536
105
12344
-233
175
-889
31168
2444
2252
428
-32768
32767
3494
32767
2006
-32768
32767
1341
32767
2656
3450
2334
73
32767
4288
290
32767
-727
32767
-257
1452
2166
-32768
-265
-32768
-11976
32767
-32368
1196
32767
2664
-18352
32767
-32768
-899
800
-1024
3956
1942
2178
-332
2936
1247
10824
32767
-6800
-22704
-30
32767
874
1800
11904
634
32767
32767
-958
-1560
1432
-680
4836
3186
32767
5988
5572
32767
32767
1737
200
4128
32767
419
-32768
32767
2380
32767
2604
-32768
3124
212
6032
32767
125
4448
4440
-32768
-32768
1798
2268
32767
2604
-376
-2574
4796
5196
-13320
43
-5464
4372
-425
5144
1526
32767
456
-32768
4772
5872
-2176
-385
613
32767
864
-4444
-565
32767
32767
4564
2952
422
-3910
725
32767
1623
1096
1159
-12656
-378
4096
32767
10808
9320
-11296
1996
1799
24928
-242
1070
3978
-4820
-1170
548
32767
2350
32464
2776
5720
32767
15304
1536
32767
-14960
-93
1412
32767
637
2730
-935
-9576
924
-3322
2784
4716
-32768
2428
3690
4060
4580
1143
2044
32767
32767
32767
1647
1696
498
934
4860
2386
4584
281
32767
1171
1640
32767
-32768
304
-2468
3526
2292
662
32767
2276
970
-32768
-2526
1533
562
8224
32767
24880
1396
1459
32767
6380
32767
-189
584
3142
32767
-32768
2342
2636
26416
1957
32767
32767
5900
-32768
4540
29248
42
1011
-32768
4192
2188
4244
-2082
6164
643
7516
1038
-32768
4856
2606
-32768
3304
-1865
1308
836
32767
-32768
32767
1163
-13192
32767
32767
1604
32767
2568
1349
-958
1581
7484
1856
32767
2714
2878
4212
3094
4252
3176
32767
1008
4136
16656
-3872
-5020
32767
2672
1671
2748
737
-249
260
32767
1649
1153
-432
-125
4256
2926
-17904
3892
3758
-1214
9952
2190
2584
2260
-4540
-24608
994
32767
3758
32767
-32768
-195
32767
-9824
-45
300
2956
-3162
1631
-522
1960
-254
32767
-3256
2046
216
17744
-198
24496
5892
-3722
32767
3910
6144
2970
-11664
-32768
32767
2844
-592
4320
657
-169
-1567
-1925
5380
1407
10304
-32768
32767
-32768
-92
5108
2982
4456
17968
5072
32767
-32768
475
1146
-207
2070
-1667
2858
32767
4704
153
32767
32767
-338
-413
-8320
9712
-1190
32767
9712
863
-4420
-250
-32768
5264
-940
2984
-32768
1492
2298
-3418
-32768
32767
1651
1079
32767
-21456
-2504
405
-1016
4532
32767
-2
1217
1469
-858
746
2404
2700
6060
-32768
-1473
16864
-2564
4036
19
-310
-820
32767
-3302
-10352
29024
32767
2590
4046
13952
-11840
32767
10496
-2402
-14256
-8712
724
-27568
32767
-6976
1155
31664
-3980
-2526
32767
122
2076
2198
6312
6744
-7688
32767
2680
32767
-2998
-12136
3468
32767
-2500
5916
-8808
1847
32767
-6288
-1080
29888
14032
-5068
-23680
16208
-4900
-6416
-26832
1986
-1899
-9544
28464
32767
-28256
32767
2818
-22880
-2352
-4672
-2336
-7164
-14232
-1789
-32768
-17632
-2676
-10480
7656
-20464
32767
1307
12696
1764
4392
734
-32768
-557
485
-32768
9872
8052
-2004
4396
-32768
32767
1362
1253
-32768
-32768
24688
-32768
803
-7268
32767
-30560
13592
-7604
10328
-4074
12616
944
4248
32767
32767
13592
32767
-1246
-32768
15160
-341
2050
-10136
29008
-3866
-26608
2424
32767
1733
-76
12376
8068
-12536
-1204
-5412
-32768
29152
32767
-6200
-15592
13408
5340
13584
-23056
-2332
-5304
11472
53
-20928
-18592
7016
-4054
-7640
-9312
18544
-11120
680
27280
393
5508
-32768
-11280
-13384
31
19
3048
1695
3274
-14224
14056
-4724
13984
7900
-3352
-2560
-9072
-1125
32767
2602
-21984
3096
-7072
-6832
-10784
3848
-32272
16944
-10472
32767
-18528
-32768
3672
-8048
32767
-21504
20656
-174
-51
18960
-7656
-1922
509
-184
-32768
-13088
-16992
-1192
9024
-6300
-32768
-32768
32767
-846
1707
-32768
32767
-11200
32767
-32768
-532
2588
-8712
-4412
-1165
6420
-674
-3552
-3402
-32768
-32768
-32768
-32768
-5496
32767
9928
32767
-32768
-6780
8544
-1438
-12184
1285
-1209
-7600
-6548
7388
7584
-7852
3710
-29456
-32768
-7456
-2024
5380
32767
-5644
5540
-32768
-1567
-6504
-10880
-32768
4476
118
13976
-4780
-2168
32767
21728
32767
-32768
-6396
10440
32767
13216
-8808
5452
2288
6004
32767
-962
5776
14120
15520
-10712
3190
-21360
8992
-5512
32767
32767
22000
132
-869
10072
-5232
-13864
25088
-4468
-32768
18016
8112
3564
1311
-13432
-32768
13384
-3838
32767
-2296
-3084
4028
-32768
-11656
-5080
-16752
-4808
6044
-13616
636
4508
-2750
-31984
12496
-1211
-32768
-2246
32767
21456
-5588
-7316
-32768
362
1647
-31760
-8172
161
-32768
32767
10424
8392
6008
32767
425
-10552
-9840
-32768
7096
-8376
-7188
6028
-9232
7540
-32768
17808
29120
-10288
-862
3614
-854
28576
7676
6844
5440
32767
-4704
-1928
12664
32767
-6920
3004
14040
720
455
5720
23216
8376
32767
12568
266
9144
12800
32767
-2506
14824
3698
-32768
20016
-23424
19616
-18656
-4352
-32768
-19
-10536
-2554
446
-9416
-16704
4172
1551
-32768
-32768
-1244
21920
-1200
32767
-4244
2104
-1325
1703
-15392
-8144
-27392
1736
-32768
-5980
5464
-10032
20176
3724
-7028
-5996
32767
-4260
-32768
-7476
3912
-28000
-24992
-1178
-32768
-13872
2566
1088
-17888
-12992
7416
32767
17248
234
-1783
8864
1517
-3342
32767
-1420
2934
32767
6804
-32768
-4160
-3912
3464
1741
-8232
-2870
-8152
2550
10104
240
-8368
4176
26064
1212
16056
-7668
-10712
-32768
-32768
2738
-21888
-6360
14656
4744
395
-32768
19568
32767
29200
-6236
-32768
-11160
3032
-10600
-2974
3662
-17344
-3326
32767
-1883
31472
-19456
-15552
782
5904
-4240
32767
-1366
-32768
-16624
-15968
10576
-5892
-19712
32767
32767
-7076
-3060
492
-3110
-7632
7644
664
-4208
-17712
-2126
32767
32767
-28224
-12520
-32768
-4088
3556
32767
-998
17120
32767
3424
-4404
6444
-2744
8880
-3974
10712
-206
26480
14776
25488
-9560
-11456
-2728
-32768
3736
32767
-21296
15808
32767
6184
20848
-7660
-8568
12688
-32768
-5256
4708
1646
32767
32767
-5568
-228
-32768
6160
-6448
5532
32767
710
32767
-12888
32767
-19120
9088
-9376
6152
-136
3356
10504
-32768
6120
15272
-236
-4876
2330
9960
-11880
-3738
-6068
12232
-8824
50
-138
4440
5452
-3204
-17168
-3982
6660
-4892
-173
-4884
24144
-6156
2284
32767
-10248
-6428
-15368
-318
-9208
-11288
9576
3890
-7840
8544
-4524
-32768
-5516
-12760
6536
23104
-5412
-4500
29888
-8352
598
-12768
-7344
-21664
-3438
-292
10176
-650
-11536
32767
-2772
-329
-5468
-4556
19888
-6468
-25408
-7160
20304
880
-5140
3940
-5472
-9192
-2314
-14280
-23312
7228
-5580
-6484
3900
5180
-914
13240
-1393
13960
-6036
-6092
-20048
4604
1504
1717
4780
-2392
-20304
15736
-32768
-3118
5620
-2448
-16752
4980
32767
5688
4728
1027
32767
1547
-4070
-9056
-2196
-121
9864
7900
-3242
-4412
-4296
2720
14120
-4436
5352
1853
-1423
-503
-3690
-16016
-1354
-504
5044
3202
2494
10368
3610
1347
-6844
8064
7056
-32768
15520
-32768
317
-1251
5368
9256
-1708
6552
-28848
-1565
9688
5612
-1923
19360
-13128
11656
-16672
-2238
8712
-7708
-3548
32767
-1281
-366
1542
1036
1611
-6820
1269
-19
-7540
-4308
-2534
-5216
-22960
3684
3384
-3936
-14856
-1168
-7360
-5628
-1739
-10824
-1010
10104
-12312
7864
2212
13808
-3750
-4908
-32768
2974
11416
-10944
5440
32767
-21776
9440
-9760
-2910
-32768
-7384
-15376
22512
-9416
-11896
-15712
-6696
-12688
-32768
-5932
32767
17344
15208
-2110
6980
32767
-7500
-6132
-8904
-22992
-6228
-4456
-9288
-3108
-4520
4010
-6692
-4484
-4412
-32768
20272
1153
-32768
-8984
24448
4684
-4356
6664
28976
6612
13488
-19968
-10048
648
-8280
888
-8960
-5564
2780
522
-9200
-948
900
4424
17424
1467
-5200
32767
-32768
-9152
32767
-4588
32767
-2420
1139
3690
32767
-6524
-5688
-4140
32767
-32768
-4076
17392
6148
-5448
-18256
4090
-1631
5968
-6924
-1838
11816
5056
4476
9008
11728
-1975
722
-30320
-5120
-18144
15160
-715
-656
32767
3066
-22128
15864
-10016
9832
-32768
-13880
1255
1745
6340
1557
276
-5332
-20368
-5244
-8264
-3434
-32768
-22624
3986
-32768
1544
-4860
-2
3598
2322
-15888
-178
-5908
-4164
259
-810
32767
2798
-9152
32767
10728
3878
-7300
690
-7080
5680
-22784
-3054
-6640
5352
-2772
-2874
-328
-13168
-14336
17968
-566
-10848
-215
6692
-15232
-5156
-20336
-788
9888
-254
-20816
3508
-850
15576
-11160
8520
-10392
-32768
855
209
12024
24672
-5040
-262
20160
-8840
6340
722
-4002
2758
-4208
15552
-7456
-677
10712
-4456
-10976
14640
6904
-11256
32767
2374
-4540
-4396
5472
15888
3426
398
948
-7516
-3474
32767
-9016
-6024
-32768
4292
-3682
15896
-1511
-9088
2062
-992
-6316
-3822
-8848
-1358
-30624
9824
-2830
-18384
-9784
7872
-880
5508
-8036
-8320
5540
7464
-16560
-5020
-5968
-2120
32767
2326
11848
-11504
-3446
7572
-6264
4080
-2696
-32768
3516
-3790
5584
8624
-4204
8592
-32768
-1289
168
8076
-1097
-16024
-499
-10760
3804
225
-434
-12616
-1975
-19472
11232
602
-10584
-2636
-18912
7684
-5728
3144
9536
-6312
-19088
5608
-9488
-3874
3952
-32768
-5748
9928
11680
27216
-442
-1792
-32768
-4672
678
-1246
-5756
1841
-11920
-2362
2988
-7720
32767
-5756
-18096
-7752
8512
-3702
15552
32767
32767
26784
-7176
6176
3258
-3464
31632
-3174
3938
-2866
-18144
-6400
-5612
-3318
2276
-2630
-6812
-24944
-32768
32767
-32768
-6008
32767
-8536
19472
10856
5616
668
-25504
-1478
3116
-1518
-2402
423
10152
12536
1463
-12864
-32768
-32768
-3184
-1854
-9976
19568
11208
-14768
16832
-362
32767
-942
32767
18112
984
-4996
21168
-6360
206
7616
32767
-32768
-5464
-1499
-32768
-9384
4948
-8012
-3850
-18480
16480
4580
-3096
-24640
-2952
-9440
1986
8036
-8536
13368
11480
-12368
7052
6736
-4536
-9064
-5376
15248
4244
2674
32767
-32768
7416
-283
-9968
21920
-32768
8368
-5156
-31712
4340
-1946
10856
32767
22192
10152
32767
899
1611
32767
2846
-9464
2156
-13552
3516
-1542
-279
-20176
32767
-7096
2428
32767
32767
-7064
-3800
1088
4592
-31728
4344
441
-32768
-32768
-1768
9400
-1318
-1650
2076
32767
1434
-1850
-1015
-32768
-32768
-24144
32767
-28224
-5328
4576
-32768
-8696
-10896
-8004
3660
-32768
-32768
-32768
-6908
4996
-32768
-19120
686
-9512
12896
-2662
1350
3634
-6100
-7112
-32768
-7388
-19008
22736
-10592
-32768
32767
-2934
4848
32767
-32768
19088
-18080
-3708
-7892
-32768
-32768
-19360
-4116
18800
-3594
32767
-23648
1098
32767
-29024
-6832
-18672
3242
-19456
-18656
8020
-545
4288
-32768
-8072
-23152
11928
32767
-4724
-1273
15864
-24000
-10440
3640
-3224
32767
3938
-32768
11736
21488
20240
-32768
4608
3732
-31264
39
10200
246
32767
-22128
32767
-18880
-3870
21536
-14816
1018
-1603
-32768
2962
11384
7576
-10448
4240
-14792
3480
10000
630
4620
-2790
32767
-4692
-13320
7668
14344
15008
515
1079
-25856
30512
-5960
9576
32767
-10640
-32768
-16784
-9264
-32768
-9784
-32768
-10792
-32768
160
-1273
32767
-32768
-13456
14608
10064
-20176
22720
6244
32767
-1628
-32768
-32768
8848
-13576
-28000
7964
32767
32767
-32768
-30208
-27600
-32768
-32736
-20752
32767
-32768
-4328
2082
-4468
8164
-9528
-3576
3206
69
-272
1192
32767
32767
-32768
11032
32767
-14360
-32768
-26208
-5252
730
32767
2766
-4948
896
7444
-18832
-17328
-22672
20736
-6372
4452
32767
8416
-3560
-32768
-32768
-7764
17088
32767
-9952
32767
4744
32767
-26400
-4364
-7872
32767
789
-32768
-32768
32767
-27808
27040
-1281
-32768
-408
936
5656
-32768
-32768
-2010
3558
14912
3364
-17728
5136
11480
-32768
6328
32767
-32768
-32768
-2041
-5576
721
-12800
-3914
6104
-32768
4172
32767
-32768
-2098
13560
16576
8112
-32768
-4948
-1692
-11128
-1134
1796
-32768
32767
1068
-8320
-32704
-2058
-2542
-17376
63
-8576
4560
-32128
1924
-2116
7136
-13264
-32768
-32768
11920
1715
-24832
-382
2108
-32768
4380
14552
32767
-32768
-7176
-6760
-10240
13048
419
3082
2176
-26288
-2
4776
-490
-13784
-20432
-1918
32767
-2990
-32768
-2578
-3874
751
-8116
6800
3740
-32768
-25872
20096
-2254
-1703
25600
-5284
-4212
-1795
7180
7960
-3502
22848
-32768
21760
27488
1276
-6424
-10968
-15520
-32768
245
3272
32767
32767
26832
10240
-28800
2274
-5392
-32768
32767
-2868
-7568
-13080
1612
-32768
14120
-2578
32767
32767
8376
-9072
1422
32767
-8800
-3394
-2994
-4840
-2666
-9384
-15136
10136
5268
-2342
-15712
8760
6984
-5280
-1114
-8712
-32768
-6944
32767
-1868
-8384
32767
-6928
4292
32767
-5236
-17008
5608
-18896
3620
-10840
32767
4520
-6132
-2664
-6916
-5200
-2732
32767
-7736
-6144
17312
-8232
-32768
7940
548
-2064
13096
-12624
-2522
8128
2676
2714
599
-7368
1101
-18560
6640
-4380
-6280
712
-20720
18896
572
-32720
-5320
-11000
-2690
-542
32767
-10512
-32768
-7476
2368
10904
-32768
-20784
-448
-4528
-2136
22176
1317
-32768
2810
-11880
-9680
16016
-1664
13120
2304
32767
-608
-21968
7592
-4812
32767
6720
-23008
-14936
32767
-6024
-291
-10096
-12056
-8704
-19568
9096
2362
-7000
17216
-17296
-26240
-32768
-2414
32767
-2930
10560
32767
-6580
5792
32767
-3456
-5560
11600
-712
3922
-8120
5440
22016
-32768
-18576
32767
2528
-9208
8464
-21984
-1489
-32768
32767
542
32767
-32768
-32768
-14864
1190
3936
32767
-3350
-21200
5340
32767
-32768
7340
-7568
32767
-2852
-2230
2350
-32768
-32768
32767
-5244
-32768
-1235
-11848
-95
17104
32767
-1235
-26160
-29376
-32768
2284
1754
-6296
-8160
-17520
-32768
-23664
-3890
-32768
-32768
-5176
9752
7208
774
-646
6132
1191
-16768
1738
7476
-4872
9392
-1674
-2534
-32768
2170
172
-32768
1858
3422
7316
268
2576
3514
7072
-1974
32767
-6232
3696
32767
32767
-668
23472
8360
5020
-7124
11288
-5116
5460
-1885
-562
-14816
-3256
-4058
1469
-6676
-6088
-4026
978
-25616
-2988
-5012
-32768
24272
-23568
-208
7860
-2050
4112
-3784
7340
-24000
12640
3256
2746
9440
20064
-24880
5724
-6208
8680
9672
-2898
-14112
-2164
-6480
31696
553
-2684
-7104
-5976
11552
8512
5020
9744
-32768
3838
-32768
6220
-662
-9784
-32768
5492
-4752
-207
-6208
-10160
-7096
7320
-20096
-17536
14616
-7880
5400
-5072
-726
-10888
-7424
5548
-2740
-5172
2832
5168
11032
22064
-88
-1300
-4848
-2086
208
-1088
6760
-8320
12616
-32768
-4852
-1932
-16320
-4464
8264
-32768
8784
-1298
9512
-2428
6028
5488
19904
32767
7376
11792
-1211
248
7820
32767
6404
-1775
32767
-2056
23056
-12552
-8744
3172
6344
-942
-3756
830
-9560
-7948
-8520
1707
-1068
-2314
437
-2734
3818
-3686
8920
1619
1197
20336
-13432
-25200
-18912
459
-32768
-3900
34
-8132
2300
32767
3492
-7980
2096
-5692
32767
1209
-3174
5356
-2300
-21808
-32768
2642
-6492
-30496
-8680
32767
32767
-14792
-5024
-5312
-2668
7668
4960
-32768
5396
-5528
1807
1219
-1837
-5288
-1080
10960
8632
-1933
-1479
30000
-32768
-32768
-2180
22608
-5040
-9432
17536
-5976
-16912
28944
3804
3238
516
3436
6120
-11408
32767
9720
13296
-27296
8060
5876
-3586
-24768
-23824
6252
-32768
32767
-2628
-32768
-3458
-29056
-6484
-2035
-1559
-32768
-3830
-32768
-3686
32767
-20992
3108
1431
-23024
-7052
9136
9536
-16232
-2556
-18624
-6880
-4956
-5420
-2148
1322
-8320
7604
3980
-32768
-1517
26400
101
-4992
-1306
32767
-13816
28256
-715
7020
-32768
32767
-5860
-9776
13840
728
32767
7096
-2276
32767
-11752
-311
3728
-32768
8280
1182
-32768
-1880
2648
-7504
-1843
268
-2940
-8800
-6160
-522
-12368
-2626
32767
-414
7488
-30448
-19600
1405
8648
16704
-1204
4968
-8912
7256
2476
392
5428
-13696
3502
-2162
4336
32767
-1734
-6904
-5712
3842
16432
-8076
-32768
13736
1634
-2842
-9152
-6920
-190
-29280
810
-4616
-11448
-30048
290
-2662
-19312
-32768
-9016
5280
11640
-5360
-3524
1310
2604
17152
-20288
-724
-6840
17552
11072
32767
-14504
4612
5192
-5836
-32768
2746
-6852
2108
-1363
-32768
-32768
-5260
-2158
-15760
3080
-32768
12920
-716
32767
11568
4256
-2410
600
-7772
-9760
153
-2734
-670
-6480
-692
-10592
10288
32767
8432
-926
-6860
-2448
3052
-1231
-64
24000
-19472
-32768
-2196
-5172
6252
-18816
6484
32767
-3232
-7244
2828
-5032
5592
-940
28592
-13968
-2774
-14472
3416
-116
7792
32767
2832
-1718
10856
-1161
-3924
2738
888
2462
-9848
795
3490
-163
6732
-182
1565
-62
-6288
-6780
4708
2868
-12296
-6164
-28368
-4580
3470
-10776
350
20304
11800
7328
32767
-988
-15032
-16768
161
14640
-5072
-18976
882
-9928
2816
-5936
-13048
13568
-4320
-32768
-5040
3432
-9816
4860
-16496
30544
8296
-32768
572
-2704
9128
-14392
3884
24480
-3180
-1639
-1817
3194
6064
1851
-8592
5788
-7604
-2606
-4360
2322
-32768
-32768
2788
-20320
7920
19520
-26096
-9568
590
24656
-3650
-3924
7964
-2556
12992
15104
11952
-19632
-4404
-32768
32767
2508
3624
-5284
3348
3278
1487
26880
-2122
-32768
22304
-19264
4040
-2908
-2574
-9304
-4740
2204
4860
32767
32767
89
-8164
-32768
-4744
7660
-6012
-5792
10760
-30320
4128
3376
2648
-10640
-1330
-8256
13448
3482
-20784
18192
5056
7988
-13064
-15376
-4428
-12168
88
-1265
-1495
-32768
-32768
-14240
-32768
-9648
32767
23552
10728
-128
10312
-22720
3744
24048
32767
-32768
-32000
-32768
3534
3610
-32768
-1495
-7136
1716
10896
-4184
-2542
-32768
-4808
-32768
-1461
8432
32767
-32768
4864
3208
2320
-5256
-20416
32767
1766
27040
-3
-6760
-12664
-9104
4804
-17456
7300
9160
-1615
-4328
-2762
-32768
11616
-32768
23264
-32768
272
18736
-1507
10040
6644
-28720
32767
32767
-32768
-357
4728
-180
-32768
-18656
3484
9816
3122
6948
30480
-17728
-4180
-32768
2360
-5400
-2598
3428
-32768
-32768
-13200
16368
-32768
32767
32767
3178
-2620
-1428
8936
32767
11176
6412
32767
-2978
31392
32767
-1997
32767
32767
32767
352
3020
32767
9432
-3932
-9104
-18928
22816
310
15960
25024
32767
-5408
9304
32767
16376
-636
-3368
2060
32767
-32768
-32768
-25136
-32768
32767
8832
-1869
-12488
8832
682
5544
-382
-32768
-1649
-32768
-26560
-677
-21168
2854
6716
6312
32767
-7732
-2968
-28960
-4380
-32768
11640
4240
-3820
774
-1541
-3696
-10608
32767
-5504
-18144
-22208
-16328
3710
-859
-32768
7604
1965
-2005
32767
3704
9192
-998
32767
2001
978
-32768
19152
26496
-32768
-14704
32767
23600
-7512
-6224
-6272
32767
1939
-5036
32767
-4784
-32768
3678
9416
2820
32767
-444
32767
-32768
32767
32767
3428
-32768
-32768
3126
-32768
32767
-2638
3582
712
-13568
1234
-19840
503
-12992
1090
32767
32767
32767
-32768
-17584
32767
328
5380
32767
-7024
-32768
-32768
8704
-1471
11944
-5772
-29840
-9976
-32768
-1263
-8904
-32768
5496
-8232
4536
-9256
32767
846
2904
32767
-5600
32767
-14752
32767
-4924
-4464
916
-32768
2362
26432
8744
-32768
32767
-20128
-6660
32767
32767
7448
-5388
9192
18640
-7712
11912
-9504
-32768
-6732
-24624
-16248
4856
-89
32767
32767
10648
2730
-686
-736
-4800
-4168
32767
-32768
2756
-32768
-32768
13680
-32768
-32768
-24144
27040
-1481
-484
-13224
-780
-8328
4240
-32768
-16448
-487
-19200
-2222
3478
-32768
2324
-17888
-5248
21056
5752
-4348
32767
-13944
32767
22752
6072
-32768
32767
-22144
-32768
32767
-2680
-32768
-32768
-727
2014
-21632
-32768
32767
914
1714
15168
-32768
-9984
266
-4876
7828
-15664
-4492
32767
-13752
32767
811
-5592
-20976
-9664
-2190
-9000
23744
13048
32767
-518
-1627
-32592
32767
3004
-20000
8672
445
-3364
-27488
11568
-6032
-32768
-61
-1649
17888
29808
-32768
1250
2186
27536
-32768
-32768
-15200
13032
12944
-3468
-14568
32767
10624
-1572
-12168
-14672
32767
32767
3926
-32768
32767
-32768
-32768
-5960
32767
3260
-5788
6540
-8944
21472
-3186
-4384
16832
32767
-26192
7416
-32768
-29216
-14288
4260
742
-32768
9408
32767
-1742
-4864
32767
-17280
15256
32767
3446
1239
1327
4476
7316
-1758
32767
4756
-850
-32768
12688
-17888
-32768
-26304
15488
3756
-32768
-32768
-32768
-2174
-10440
-1228
254
-22016
-2310
-8288
-32768
-402
7896
842
5780
29328
4476
-32768
-7664
-1586
6104
32767
-15144
16384
-2656
25344
-7880
-32768
-32768
-511
32767
-32768
6172
32767
32032
18512
-2036
6996
32767
-12976
5200
32767
662
32767
-20336
7436
-4108
-32768
422
32767
-32768
-32768
22928
13312
-32768
-6456
13216
-32768
-32768
-4536
-6472
-3588
799
-16784
-11488
-7464
-3226
-32768
32767
-32768
-32768
32767
1433
-32768
-10016
27040
32767
-592
-32768
-32768
-8432
1183
-4588
574
-4976
18320
32767
-10144
12440
-32768
-32768
487
8016
-15096
32767
-32768
32767
-32768
-10704
-32768
-1087
-32768
-32432
-3670
2041
32767
-4772
31824
-32768
-32768
-32768
2043
5148
32767
28512
-4408
3754
-4736
32767
-32768
5384
24624
17008
-10664
2366
14824
-4168
-5860
-32768
26720
-28208
15096
1165
11648
32767
-32768
-29104
-1934
-3642
32767
-32768
5760
-26656
-17760
-23808
-12440
10080
-1917
32767
-9736
-32768
3780
32767
-7472
-32768
-32768
2742
1819
32767
-12688
-778
-6280
-24032
-2638
-93
-32768
395
-32768
2076
5512
32767
31728
1135
32767
32767
3374
2506
-32768
-3026
15128
564
-7796
-24032
-6800
-19152
-32768
-32768
-3500
-28768
-19968
8132
6596
14920
32767
-22864
-32768
-21440
-32768
-5968
-364
-7316
-18304
32767
32767
-32768
-22544
-32768
-32768
-32768
-13936
6908
4968
-12072
428
7992
-19472
-15960
32767
2842
-9376
32767
32767
-32768
9688
32767
9744
-32768
32767
32767
-14072
-32256
-2808
-21856
32767
7332
2702
32560
-1149
32767
32767
-32768
-32768
-13200
32767
-16416
-2546
-22032
4812
-1141
6520
-1955
32160
-3124
-63
16928
-32768
4612
9648
32767
4512
-6092
-6524
-4792
-32768
32767
-32768
-8304
32767
32767
8432
11720
32767
3884
4856
1989
-10144
1141
-4280
-29360
-19872
-11232
-32768
5608
-296
6868
-4812
4468
-8968
-32768
3328
-32768
6524
-27120
-8656
8304
2600
-5332
-5360
-32768
2186
3316
4408
4884
-32768
2934
32767
-7428
-1811
-8480
25184
2692
-3972
398
-9544
15032
4008
32767
-2688
-32768
-29168
-30608
-32768
16864
-13112
-10272
2500
-17648
17664
-9136
-32768
1565
-32768
-10360
9624
2494
32767
-18624
32767
3402
32767
32767
-4280
32767
-32768
2260
32767
21088
-4168
-3112
-6008
-10440
-5292
-28176
2908
-17616
-4632
32767
32767
32767
32767
-668
-32768
-3658
32767
-3694
-22448
32767
-32768
12640
9144
1659
-4292
-15784
-32768
-32768
-7336
-14640
32767
-32768
-9368
14472
29056
32767
3064
-32768
-32768
2770
-32768
-8376
32767
-17104
-14264
-359
-32768
1544
32704
8600
-32768
32767
1710
-10832
-32768
9848
12688
1263
19968
-12856
-11696
7080
-1454
-32768
-21696
-32768
-23536
32767
-4640
32767
-2904
32767
17232
-8060
-4904
-32768
-30144
32767
-32768
4568
32767
-32768
299
-7024
-32768
-5132
2962
11640
2922
32767
2178
-4736
-19328
-32768
13208
-5488
-32768
-10968
-5392
-32768
-17200
-4000
-1438
8760
-4524
-3778
32767
-14552
-32768
4062
6232
32767
-32768
-10472
-32768
32767
-2690
-24512
32767
-22752
-1245
-20000
-16640
32767
-2382
-3320
18864
-2740
-6712
-8488
-32768
-8148
2846
7300
-32768
-24176
32767
-29424
1674
1997
-13088
22752
8480
8320
3556
-32768
-25760
-4420
-32768
-32768
-238
-7184
12584
7916
6388
20352
-1738
-390
32767
-9288
-5448
800
18896
-32768
21440
-3042
26544
32767
32767
32767
17152
2784
-8360
-32768
-32768
4504
-20112
32767
-17520
-32768
32767
3954
-30048
-5840
-32768
-32768
-8776
-32768
-706
4700
-9016
-926
28480
1070
5876
3868
17824
6288
428
32767
-32768
-15616
4628
743
-32768
-32768
-32768
-12888
-32768
-32768
5764
4094
-32768
-32768
-1146
3016
-4664
-3864
4264
-32768
16272
1753
-31600
12536
-24368
32767
-32768
994
2658
32767
-23472
-23120
-32768
1511
-4224
-1655
-12352
332
-5068
-32768
7096
10512
3802
2766
-32768
3426
8432
-17008
-30160
16264
-6628
-6204
10560
-8784
-32768
32767
-1288
-9600
-32768
32767
4062
-1145
32767
5180
8944
-4844
-1838
-32768
12408
-13656
32767
1258
-32768
-2704
15584
-1156
32767
-32768
32767
32767
32767
-22352
-8376
3852
5828
-32768
17584
-32768
-14608
-5216
11856
-1594
1173
-11024
-10992
-4732
-6260
32767
32767
32767
32767
1744
-32768
-3130
20512
30016
-32768
32767
32767
-5112
-22384
5776
-4904
-11416
32767
-2368
-32768
6204
-32768
-32768
-10152
4236
-15216
-32768
-23728
32767
32767
2820
32767
22560
-32768
-18160
-7544
6984
-32768
-12520
-24704
4004
-32768
32767
-7948
2478
32767
-10464
-5220
2982
16672
-11648
-32768
-14272
4488
1591
-19360
-2464
-2560
-9704
9216
32767
938
-32768
9936
-11456
-32768
-10992
-32768
-32768
-26512
-1127
-32768
-24384
2136
2354
894
6124
15384
-9
604
-3252
2140
311
30880
-32768
496
3288
32767
480
2432
32767
1615
1827
1045
2642
185
538
32767
-2136
32767
3708
4812
32767
32767
769
3744
1259
1491
17072
32767
879
28272
474
1605
3678
-997
-1
2118
32767
2150
250
1079
4568
5156
32767
32767
2398
-32768
-929
5876
1192
1098
24240
430
32767
32767
-32768
2140
2204
8512
-32768
464
1216
1173
2304
833
32096
907
1281
32767
2940
-1527
4648
4002
-11888
14224
3854
2674
32767
32767
-1282
3230
78
979
-8752
32767
790
2140
32767
-414
-32768
7352
981
32767
32767
-32768
-2168
2676
-32768
-289
-309
-574
-1040
28992
2434
22720
2342
32767
1465
1943
-32768
1149
1236
56
-1721
32767
-32768
-32768
1106
19584
2124
-426
1215
32767
968
-287
-1237
794
32767
1348
32767
1204
1660
3920
1327
-173
1160
-32768
-1252
2702
3404
1747
32767
2542
296
3614
4116
472
1189
9400
-5372
1292
2488
2142
702
-252
2808
32767
16064
-1605
1216
-32768
1196
4384
680
32767
4848
1473
7152
11784
32767
32767
2094
-3120
12208
-650
-858
2019
-32768
23072
1163
32767
-1167
32767
13000
8480
-1334
-32768
50
-32768
32767
-32768
32767
8712
32767
334
-6752
-32768
32767
1638
-1352
3852
-29
1720
-780
-55
-868
1792
2156
32767
-32768
-32768
-248
32767
2034
2302
32767
9
7524
23600
1309
656
1944
1633
-684
1853
32767
-383
5388
-8032
32767
1110
758
1904
32767
-694
32767
32767
8600
32767
-2530
32767
1880
2296
-732
-32768
1290
32256
806
-32768
-32768
3312
596
-32768
766
11448
1461
1567
-2300
5996
-444
440
3008
-1425
-3946
2043
28016
2378
14872
-23504
5044
1574
2017
2620
25776
1643
32767
530
-21
32767
32767
833
2282
-3630
597
31328
1444
1610
10496
-1180
-1990
479
-32768
9016
5472
-32768
730
-1274
-32768
-459
-1158
-1408
30256
1323
-1027
32767
-23
32767
6272
-1471
32767
32767
2580
32767
25200
-238
32767
32767
-129
2066
3096
772
32767
445
1322
4760
32767
454
1246
-993
-1055
3648
1317
32767
1691
32767
1085
-304
-634
3860
3862
3568
16248
2042
-32768
-91
2104
-251
-32768
-182
3968
-214
-1619
-282
-10832
11392
1259
32767
2670
1226
-1556
6232
32767
32767
536
-4064
-28272
9552
6836
482
2892
-1175
1113
-11864
46
417
2536
2690
-32768
32767
1323
32767
32767
32767
-1642
-486
-32768
2624
2126
-1831
1437
18640
538
16432
710
32767
3664
1677
-32768
5096
2136
1574
2532
32767
32767
32767
-688
32767
32767
1931
-2568
32767
8736
616
-698
1141
4228
2964
-32768
4804
2072
1788
43
3002
6064
-32768
-493
-1265
3082
-1749
19376
-958
2620
514
841
1792
-614
-2318
-22512
-431
-1398
2050
2292
8576
3404
32767
-419
1399
21904
6984
1088
32656
922
-17168
2290
-1861
-32768
3034
-32768
-29776
996
32767
26400
66
2448
2848
32767
-1635
2037
-32768
-1443
32767
10200
7656
2164
-664
2548
-32768
32767
-32768
32767
11448
32767
1080
-24048
-32768
32767
604
1462
-96
616
1407
3426
176
1006
475
5704
-32768
32767
-32768
1515
32767
441
5352
32767
-1651
32767
32767
-724
2470
2960
-1297
1308
676
23344
-917
-428
-5224
-32768
1351
62
2634
32767
-171
-32768
-3542
600
32767
482
32767
718
25
277
-32768
1478
32432
1976
-32768
27904
269
1855
32767
12144
3206
2280
3546
2608
2442
-1209
7752
8448
2230
1598
2936
2136
-1300
32767
32767
395
3198
1875
7200
3660
687
32767
3
4680
32767
-32768
1054
649
-1302
3558
11272
-3934
624
32767
-128
1592
7680
-32768
2734
3082
-32768
466
2208
1342
194
79
2666
3224
-1565
-914
32767
1561
-32768
2630
3690
32767
32767
1504
1844
-652
-1008
4956
32767
-125
15768
-69
782
-5224
3204
2164
-2452
3100
457
426
-1198
380
-32768
1721
32767
3218
32767
-682
1244
-1644
1723
8312
1460
26960
-5360
32767
3078
2890
19584
-32768
377
1803
780
949
408
-12072
490
-88
32767
2040
-364
2102
6616
32767
-632
32767
1305
32767
-32768
5456
876
1185
-1140
-32768
32767
2288
-910
32767
-13768
14848
348
3008
32767
-31120
-8416
-429
728
-32768
2604
1156
8
962
21296
-1545
2560
3080
32767
1615
5340
32767
6200
475
1220
498
9360
-32768
32767
1016
32767
-8044
2288
354
32767
1242
811
-223
-749
14504
1857
32767
32767
-1240
3110
986
1881
-720
32767
2792
212
12416
2534
3270
2047
1048
2590
7360
2072
2192
1039
-3084
3792
1424
2582
638
1734
-922
32767
83
-385
1103
2015
1875
-1037
-2304
-4880
-32768
-796
32767
1748
-32768
13088
528
32767
9888
325
-2046
1822
32767
1391
-5440
32767
-59
32767
2848
4728
378
-32768
1553
32767
-9688
32767
-31264
4980
32767
1952
-4916
32767
-32768
1655
2232
9144
1966
-367
676
-785
915
-1576
10200
32767
-32768
32767
-482
32767
760
2744
10520
3222
24352
-1313
-400
896
-1295
1724
3838
3012
31184
2830
5124
32767
32767
1077
1415
-22144
32767
1521
32767
31264
544
32767
9
-32768
848
454
4488
32767
-994
11008
120
-32768
-32768
868
215
32767
1726
6340
-660
-486
3994
-5816
1560
-2728
777
3586
3300
1268
27856
-704
-32768
2520
11424
2514
3228
2150
32767
1281
-23520
-1282
32767
32767
-32768
2476
2724
-3780
4200
32767
-449
-36
1130
-8200
582
4912
32767
7816
2980
858
172
2220
-32768
-410
733
93
-6608
-570
1231
32767
2588
29328
2072
3638
32767
32767
-914
32767
11488
800
3634
32767
680
4372
769
-5952
1387
-3074
474
6156
3522
-160
388
142
5028
4026
520
32767
32767
32767
550
1494
-382
1270
-724
4058
8384
1258
32767
858
2996
32767
-32768
125
666
2510
3126
955
32767
-279
281
-32768
2444
636
4720
1737
32767
-11920
1201
2182
32767
32767
32767
2040
1292
1489
32767
-32768
642
1831
24352
-702
32767
-32768
4808
7196
1459
32767
3738
2202
-1620
2092
-54
852
-386
12312
592
18688
514
32767
10352
3664
13080
3194
915
-624
1555
32767
-32768
32767
498
-6976
15960
32767
1473
32767
5456
1686
837
-516
3630
1425
-32768
1049
1891
3290
1138
1585
2760
32767
7268
595
32767
-2072
-3778
32767
2224
1574
6452
-252
702
-1196
-26448
265
4544
1965
948
4588
1286
32767
1900
842
-3084
10952
-650
457
3456
166
4212
-126
-32768
65
32767
-15184
299
32767
-5308
216
746
1117
32767
6408
5
12192
-1253
32767
2580
8112
-72
32767
1148
22064
-29216
-32768
32767
4050
-13128
-1634
-3590
-32768
32767
-488
271
11512
428
-60
283
840
2370
414
6680
1579
32767
-11432
2968
24576
2698
5788
-1732
1298
32767
-32768
525
150
-3916
698
-255
1285
-13888
5512
-1746
32767
32767
-648
215
-1379
32767
-3916
32767
25552
-50
-32768
452
-32768
5328
966
622
-32768
2336
599
-329
-32768
6024
-296
-1722
32767
-7604
792
716
-2110
3390
32767
1295
1378
2876
729
2344
1624
8432
5500
32767
4608
28304
-2626
5504
6796
2416
616
32767
2498
1722
-32768
-32768
2033
4556
1569
719
2166
2578
1924
-8696
1099
1491
18864
32767
4176
1669
32767
-477
5484
32767
-725
-1834
517
8560
1477
2718
32767
-1414
32767
736
6688
32767
32767
1589
1333
2762
1656
14016
13176
2712
14728
-836
842
322
96
986
1313
9712
1249
-666
1910
-1684
29872
4424
32767
-154
-32768
1806
16896
-1460
1278
13256
2708
32767
6080
26688
1456
8288
1726
-32768
1619
290
488
2932
3230
29792
688
1380
32767
4356
-1716
2021
4916
-32768
10032
6396
3652
32767
32767
2808
2406
1532
-2112
-32768
32767
-1008
677
32767
986
2922
32767
3582
32767
5304
-32768
520
4074
-32768
2256
4232
2794
1690
25344
2124
8944
2046
32767
1873
3098
-30496
-728
2762
3534
278
32767
-32768
-31616
-1044
32767
3456
942
-758
32767
-932
-968
354
1652
29792
447
-32768
2466
2282
4276
-788
-479
675
32767
529
-1118
-5192
-850
32767
134
640
4508
2180
-2220
1444
3248
-9680
570
-378
2720
5720
-5864
1273
32767
6632
566
2140
-12096
548
5296
-1560
32767
2636
2678
32767
2170
27376
32767
3484
-22448
-16960
-498
2182
2798
-32768
4460
650
32767
3074
32767
-3026
1538
-421
32767
368
-32768
16976
-32768
32767
998
32767
3488
-22848
-32768
32767
1539
3010
3618
4504
-1359
2638
-243
2580
-75
680
32767
-32768
-32768
1692
32767
1370
4100
32767
4440
16864
-9328
704
536
-1728
-810
-3772
1174
32767
-260
-79
-3540
16360
-393
-334
-850
32767
-656
32767
32767
9376
32767
914
32767
2906
2838
3032
-32768
604
32767
2058
-32768
-32768
5272
2412
32767
3854
1914
-1823
1294
2600
-10480
-801
2528
1130
1043
85
4808
28400
458
-32768
32767
2216
3980
2446
1060
-27456
-432
32767
-2650
1975
32767
32767
2340
524
-1098
4604
25424
-2568
-860
7216
-242
508
-160
17088
11680
5980
32767
108
766
-28272
1454
1781
626
29808
458
651
32767
1239
32767
12304
4868
32767
32767
1378
16320
-737
2041
10384
32767
-908
728
830
-589
32767
1248
900
695
32767
968
2042
2562
-612
7772
2712
32767
-1071
32767
426
1753
2360
265
3698
6744
14328
1676
-12200
1166
2292
83
32767
-186
-35
664
31
2039
-20288
8832
370
32767
-4010
111
-2514
2596
32767
32767
1846
-2016
-6080
-1726
14720
7260
-10304
1857
9024
32767
652
-564
-1070
708
16336
32767
79
32767
21424
32767
-2060
1757
32767
2908
1348
-664
609
5892
3898
5508
-1244
32767
4096
3294
-30880
226
-145
350
1009
32767
32767
32767
2670
32767
32767
8256
-4084
32767
1826
-1136
1746
1495
5828
-1150
32767
3940
2790
2762
926
-1209
3322
-23120
522
996
-1715
-3452
29856
-40
269
332
-245
-786
1827
444
-32768
3188
-434
1334
4396
17744
466
32767
270
350
17376
32767
1809
32767
-564
-32768
509
3412
-32768
822
-32768
-32768
1346
32767
25040
-446
3442
1159
32767
2750
1316
-6364
-1303
-32768
-7356
-708
1030
23744
-2550
-32768
32767
-32768
32767
-824
32767
-76
-32768
24016
32767
436
513
-1892
778
2752
900
-3072
-511
-2368
13992
-32768
32767
-32768
292
-32768
206
5092
32767
954
32767
32767
958
2556
3290
512
478
4604
31904
919
-2320
32767
-2238
2572
1646
1998
32767
3224
-32768
-32768
-908
32767
177
32767
2692
1400
-1097
32767
2624
32767
-1889
-32768
32767
2052
-511
-32768
32767
-1169
11016
9392
-1615
5060
980
8816
1844
-361
1792
6608
650
-604
-32768
32767
3132
5352
2328
2538
-13736
-983
32767
-2314
2908
32767
32767
787
661
2624
7592
3518
-1792
792
32767
1400
3770
3624
-32768
3300
-443
-20624
-437
4352
32767
2504
553
424
3728
-893
522
32767
628
-32768
1499
10608
32767
32767
-2584
19152
10880
196
2470
32767
486
2076
410
381
-5736
63
4224
-5112
7432
4320
654
1608
622
12576
-13704
32767
2720
32767
1744
804
2210
1949
6588
4724
27040
-2784
32767
3298
6160
10640
-32768
1922
232
-814
-367
1233
-32768
986
2502
-32768
-165
2976
-563
7224
32767
1458
32767
-1214
16208
25728
12000
1503
558
-1630
-32768
32767
4268
-206
32767
-12120
3648
-32768
5884
32767
-230
9448
-3328
174
-32768
2788
1300
1666
-469
14144
-1813
-51
-788
32767
906
5140
32767
5256
692
95
1920
-14920
-32768
32767
2274
32767
-1486
3766
200
32767
-1737
1947
56
-414
1399
-2360
32767
29792
1028
50
3644
1827
1362
32767
-639
-812
5228
-688
-300
-2504
809
928
3976
-1226
2920
2628
10056
819
1100
914
832
14456
-1828
9952
-808
441
-148
7948
330
-3104
267
-32768
32767
3354
32767
4688
-32768
32767
1181
32767
2600
3296
1867
882
32767
5704
-2416
32767
1043
32767
-3946
3344
1981
-32768
1341
-32768
-29312
32767
-27392
2716
32767
-260
-21392
32767
-32768
750
674
584
7004
2224
3834
-421
5832
462
3290
32767
-32768
-1293
2614
32767
3146
2188
11984
4848
32767
32767
8
401
1313
-546
5968
1214
32767
6452
4268
32767
32767
1542
-327
1942
32767
-1569
-32768
32767
3328
32767
1615
-31888
901
1721
5876
32767
1897
8080
668
-32768
-32768
1769
542
32767
970
-2252
865
2098
2178
-14720
830
-7664
2556
-1643
5480
-2360
32767
3690
-32768
4260
6020
-1024
1179
1533
32767
-849
-32768
-1494
32767
32767
-1157
1902
1872
-5612
-108
32767
-11
2170
4756
-9648
420
8028
32767
11656
14632
-21520
1611
1938
32767
1047
1635
4576
-22640
-1238
-279
32767
782
32767
1706
9224
32767
7992
908
27888
-21472
786
2468
32767
-255
2154
-428
-9864
1509
-2286
952
6976
-32768
2822
4824
3736
7432
-426
-48
32767
32767
32767
1203
-193
3228
1386
3040
3306
1660
835
32767
4018
530
32767
-32768
-340
-2918
2186
2136
-409
32767
47
380
-32768
-2930
584
454
-837
32767
32320
6396
1586
32767
3706
32767
273
2584
989
32767
-32768
2930
2412
19168
2700
32767
32767
4464
-32768
5384
32767
-787
478
-32768
4364
89
3006
-164
8888
491
8752
-84
-32768
508
2446
-18576
1429
-2038
424
-590
32767
-29648
32767
-678
-10480
29776
32767
403
32767
1610
2170
618
2626
6504
3782
32767
4648
-566
1414
5136
1978
5392
32767
4956
822
17248
-4444
-2418
32767
1402
3482
2758
22
1213
2350
32767
-1549
-3176
1756
85
1842
1874
-19152
2474
1139
-6688
32767
386
866
4152
-1822
-18352
2037
32767
3708
32767
-22464
2584
32767
-20512
1940
1147
3300
-1855
622
-1495
205
1550
32767
-4868
4640
-217
24128
-441
32767
11048
-219
32767
-359
-24208
3592
-16144
-32768
32767
2872
608
1006
-411
-3264
428
540
6356
-627
5080
-32768
32767
-32768
-430
21600
1984
8608
27184
4276
32767
-32768
-658
-12
-194
1654
-2726
10296
32767
2928
-990
32767
32767
806
-486
-7748
-1464
-2308
32767
32767
-1130
-15312
-1272
-32768
1957
-772
1301
-32768
930
-252
-4124
-32768
32767
3504
1990
32767
-24240
-1020
417
-3698
4616
32767
1424
-1552
976
-943
2870
1022
3358
4212
-32768
-6680
16784
-3330
5204
-4412
-5960
-98
32767
-1197
-7648
25456
32767
4432
4836
9184
-20144
32767
10896
-1747
-9744
-10592
-397
-28928
32767
-8016
3330
32767
-4216
-4404
32767
-118
4640
2578
2320
4048
-7556
32767
1677
32767
-5612
-10400
3912
32767
-4636
1051
-7180
1132
32767
-11392
-4524
32767
13064
-4116
-17536
16864
-3362
-9968
-17248
3678
-2426
-8504
29520
32767
-22592
32767
1752
-11208
-3246
3906
-1780
-7924
-3712
444
-32768
-29136
-5864
-12768
9120
-16280
32767
4046
11440
1315
1522
-1456
-32768
10600
91
-32768
10056
7548
-1252
10568
-32768
32767
2912
2188
-32768
-32768
29392
-32768
3430
-4876
32767
-31408
14512
-8744
6960
-8984
27696
3236
2716
32767
32767
18960
32767
-3080
-32768
16624
969
2814
-10008
32767
-5388
-25552
3484
32767
-877
-2528
11392
8952
-7852
922
-3984
-32768
32767
32767
-6496
-20976
14176
5860
16496
-32768
-992
-5308
13504
24
-23536
-27792
-32768
-1019
-3078
-8352
15304
-8168
2532
32767
-1198
7256
-32768
-8600
-28960
2020
1447
2518
1215
4120
-13816
5976
-11304
17712
9368
-1353
-56
-3340
-1706
29920
21
-21424
6104
9224
-2744
-5336
4172
-28240
25040
-11160
32767
-12952
-32768
-518
-5680
32767
-4280
21584
3274
616
24128
-11640
-2990
-32768
1484
-32768
-19392
-17456
-1674
-27136
-3126
-32768
-32768
32767
24688
7944
-32768
31424
-14376
32767
-32768
-2266
2664
-8832
-3136
-2372
4316
-55
-2246
-5264
-32768
-32768
-32768
-32768
-5908
32767
11928
32767
-32768
-4292
13360
12296
-13120
72
689
-6956
-9632
2294
8600
-9760
11288
-25696
-32768
-4872
3148
5440
32767
-3048
11360
-32768
436
-32768
-9392
-32768
5460
520
11616
-13088
-2916
32767
20288
32767
-32768
-8360
8168
32767
12952
-11440
6172
-3588
2844
32767
-260
5892
17056
15448
-7824
892
-24576
7680
-32768
32767
32767
23056
76
-47
20336
-2778
-22272
27904
-7952
-32768
21632
8288
3818
2144
-13400
-32768
13928
-3774
32767
-3770
-5400
10016
-32768
-13296
111
-22656
-5096
4872
-4372
-2890
6376
-2664
-32768
10888
1077
-32768
466
32767
20400
-4164
-20640
-32768
-852
1346
-30976
-9416
12176
-32768
32767
13872
8280
1784
32767
2314
-9712
-13104
-32768
8264
-5920
-7672
3790
-16032
6308
-32768
14968
32767
-9120
137
3676
-2650
23536
9056
10768
8672
32767
-7320
1668
13624
32767
-6920
4148
15144
-2246
459
9504
27888
12072
32767
12824
5740
12920
12168
32767
-1592
17584
3186
-32768
32767
-28128
18080
-19920
-3612
-32768
-8640
-8712
-1825
390
-10016
-11872
3768
3438
-32768
-32768
1817
25104
-315
32767
-5652
3262
-1220
75
-12824
-6212
-20624
710
-32768
-6108
4070
-7256
20784
6880
-7228
-7852
14504
-3350
-32768
-6196
-2248
-16992
-23776
-1746
-32768
-10856
8004
3496
-15792
-15192
12504
32767
21360
1544
-3604
7476
58
-770
32767
-628
2598
32767
10232
-32768
-345
-2338
2566
3016
-8568
-2270
-2346
-14392
9904
149
-8864
5392
19424
329
28704
-8240
-11344
-32768
-32768
2392
-24336
-6132
20288
6392
-1489
-32768
29552
32767
16096
-4500
-32768
-11632
-591
-11552
-2047
3890
-14224
-2090
32767
72
32767
-18880
-16152
762
15312
-5624
32767
-2576
-32768
-30544
-17744
9848
-3152
-11992
32767
32767
-6872
-2784
980
-4272
-7968
10672
-528
-5580
-26592
9640
32767
32767
873
-11616
-32768
-3834
6072
115
-1660
31360
32767
4832
-4992
6804
-3480
6504
-6648
14944
3978
21760
19616
26560
-11216
-18016
-4296
-32768
3740
32767
-16160
13968
32767
5372
32767
-8896
-5256
10936
-32768
-5664
-2418
1026
32767
-5040
-6604
-2052
-32768
6784
-6644
7112
32767
231
32767
-11048
32767
-12056
10416
-9824
4956
-8264
6052
13712
-32768
4828
16296
2072
-1403
406
9200
-3090
-5680
-4752
7488
1792
-864
-2514
4592
6712
-5116
-17456
-3596
5020
-5808
255
483
32767
-5248
2204
32767
-9240
-6744
-14880
-3108
-10800
-10760
8624
2180
-8360
7400
-3570
-32768
-2578
-12152
24864
32767
-8192
-3580
30384
-8984
-5604
-9936
-4196
-3768
-5032
-258
12272
-1380
-11488
32767
-348
980
-6052
-4676
18624
-18656
-22832
4704
17504
-7256
-5348
-1545
-6604
-8172
816
-12416
-29504
2542
-4404
-6620
5744
-588
6740
12560
-821
14272
-9544
-6300
-20016
3076
9
5024
1591
-2014
-15736
9992
-32768
-3464
14224
-4560
-11640
3844
32767
6220
4948
2488
32767
1347
-813
-10920
-2834
-462
11080
936
-2142
-9056
-490
3764
14392
-4432
14072
2168
-3610
-2314
-3552
-15992
-6324
5088
5272
6300
-380
10024
4636
2722
-8432
9824
7324
-32768
8288
-32768
1416
-2742
3982
13960
912
-29472
-25104
-4030
11888
6020
-2702
17872
-25584
8544
-17776
-4464
9256
-6764
-2456
32767
-998
1494
-19136
-58
-3070
-9240
1498
1723
-10096
-1568
-1700
-4724
-24608
5560
2224
-6016
-15848
-1796
-7104
-3700
-89
-8432
-1866
14864
-9128
7848
1391
14632
-3980
-3436
-5360
-1342
-7316
-11512
7352
32767
-19744
6236
-5540
-5184
-32768
-6980
-15096
18656
-9344
-18080
-18256
-7384
-14168
-32768
-5616
32767
16368
13120
104
11904
32767
-4968
-13328
-10336
-10888
-4404
-3960
-11552
1051
-4018
2104
-7544
-549
-4058
-27984
17200
10216
-26784
-7608
26544
5064
2782
19264
31440
18064
26896
-23120
-12112
1304
-8320
1728
-11992
-2278
5376
-719
-7332
-433
1379
5468
17440
-558
-5784
32767
-32768
-9408
32767
-3704
32767
-4900
4416
2748
32767
-7240
-566
-3466
32767
-32768
-5140
15704
-11504
-9440
-17792
6596
2768
6304
-4276
158
15232
10568
5560
10728
10696
-108
848
-26048
-4624
-11232
16800
1128
-1934
14128
4176
-28064
13816
-9680
11240
-32768
-14080
-234
2990
-1899
-6236
725
-5736
-32768
-5164
-7580
-2862
-32768
-18384
2986
13696
1647
-4204
-814
3710
3090
-14488
-2806
-7020
-3028
413
-335
32767
2996
-6064
32767
4484
6076
-8080
1648
-6624
6184
-4580
-4488
-3834
7848
-2532
-5256
-982
-11656
-14848
23936
-610
-9344
-825
6900
-13848
-8060
-2152
-1176
7080
1729
-18432
2942
602
11272
-12376
8424
-9024
-32768
744
-192
12592
32767
-3626
1377
19744
-6108
7584
158
-770
4868
11768
14680
-6900
1573
388
-19088
-5416
13104
5328
-18912
32767
1759
-2220
-4050
6780
17296
-6992
69
2542
-5860
-3744
32767
-10232
-1599
-32768
-50
-4256
19968
-2806
-18112
4496
789
-6040
-5968
1540
-771
-30576
9280
-23776
-22368
-6076
3246
-3576
2268
-7988
-6640
23152
5624
6276
-4416
-7200
-324
32767
2658
11472
-12960
-6528
11432
-6888
5120
-8392
-32768
5016
-6076
5580
7544
-2856
8100
-32768
-3316
599
1841
-9
-16024
-1616
-10744
2966
2228
-2356
-11160
252
-23360
10448
2360
-10688
-3184
-21440
8968
-4996
5788
8048
-7588
-25072
3358
-7324
-2284
-2588
-32768
-4584
27584
14176
6904
-1707
-1261
-32768
-3946
3734
-2626
-3232
1084
-16928
-688
-660
-8032
32767
-7776
-21808
-6208
13832
-3836
23824
27024
32767
32528
-39
4864
1830
-12216
32767
-2702
3748
-2886
-18048
-7364
-3184
-1176
1721
400
-9264
-21504
-32768
32767
-21104
-8544
32767
-6912
20912
16880
7092
2676
-18176
-646
3182
-2416
-4624
390
9608
10640
2118
-12304
-32768
-32768
-262
689
-7460
24288
8400
-20384
-24912
-1244
32767
1864
32767
20064
-1869
-3404
27936
-6580
-466
5480
32767
-32768
-5816
247
-23136
-11888
3350
-9504
-3140
-16104
15440
4468
-417
-19008
-2920
-6964
1116
4252
-8776
14544
10200
-9784
10120
7464
-8848
2866
-6724
16960
3010
3476
32767
-32768
5588
-594
-12312
15432
-32768
8808
-1137
-32768
5608
-3830
18160
13512
18864
9176
32767
2710
3316
32767
4820
-10240
836
-14456
5948
-130
-1645
-21264
32767
-7188
2966
32767
32767
-7212
-10728
1620
2766
-32768
-25008
1483
-32768
-32768
-620
5200
-1048
-1872
5120
32767
848
-936
1914
-32768
-32768
-24448
32767
-23264
1724
3826
-32768
-8688
-11256
-5016
5940
-32768
-32768
-32768
-6328
5524
-32768
-9968
289
-9664
12368
-5348
280
10088
-7840
-9920
-32768
-5400
-18848
20320
-5640
-32768
32767
-1778
9216
32767
-32768
12024
-8168
194
-4220
-32768
-32768
-20128
-3634
19088
-2164
32767
-22304
2380
32767
-29248
-9120
-17744
3700
-25248
-18576
8816
-936
1906
-32768
-6488
-24608
12312
32767
-2398
1445
18448
-21232
-9048
2184
-4828
32767
32767
-32768
11616
7720
17968
-32768
4584
3116
-25280
-3056
9656
-2078
32767
-20080
-32768
-16800
-8632
21504
-15456
290
-1594
-19280
3848
10448
11664
-11512
20768
-10632
1616
10768
4916
3244
-4636
32767
428
-15872
6680
13664
12608
6232
-58
-32768
29888
-6480
6452
32767
-12512
-32768
-16088
-32768
-32768
-9744
13912
5444
-32768
-2936
-356
32767
-23760
-15640
14392
8256
-22816
29472
6556
32767
1848
-32768
-32768
10448
-12616
-32480
7388
32767
32767
-32768
-23920
-27888
-32768
-24048
-19312
32767
-21392
-4716
2742
-3416
7584
-11064
-4944
5236
-1976
199
5332
32767
32767
-32768
8504
32767
-12784
-32768
-18528
-5840
-4764
32767
5960
-7832
2746
5988
-19856
-15576
-24432
16112
126
12976
32767
6468
-5592
-32768
-32768
-7044
28416
32767
-11072
32767
4976
32767
-13504
-5888
-9064
32767
1325
-32768
-32768
32767
-27088
25056
597
-32768
-1342
4244
4392
-32400
-32768
-7432
3454
16416
1333
-16208
6600
9184
-32768
3986
32767
-32768
-32768
-1402
-2952
-195
14536
-4700
16464
-32768
2296
32767
-32768
-1959
9696
14848
8336
-32768
-4108
-2986
-25520
-407
-425
-27776
32767
332
-9624
-32768
459
-979
-19744
-1555
-7156
2438
-26544
1060
556
7004
-12912
-32768
-32768
11832
-1504
-32768
-1343
1841
-32768
3728
12552
32767
-32768
-4760
-5228
-9320
32767
361
3688
4392
-15144
578
3860
577
-12216
-22832
-3198
-6768
417
-32768
-4896
-3814
565
-6664
2664
4552
-32768
-23248
26064
-521
-1252
26208
-32768
-3018
-826
8608
9248
-2484
10944
-32768
18576
32767
-194
-6564
-12064
-13960
-19616
3098
3818
32767
32767
30144
16256
-29920
-5360
-6860
-32288
32767
-3686
-6920
-10976
5856
-32768
12976
-1204
32767
32767
9960
-7780
143
32767
-7204
-5112
-4204
-4468
8984
-10888
-10424
7740
-16976
-2970
-8456
4264
11168
-2902
848
-7668
-32768
-5200
32767
-1456
-9344
32767
-5572
5412
32767
-6432
-23360
6624
-14640
3282
-7808
32767
-35
-7912
-2472
-9976
-6368
-3030
32767
-7288
-3976
8488
-10816
-32768
3802
-468
-550
16080
-13864
-3604
9424
-2946
1089
-186
-5248
-371
-9488
7404
10616
-7160
-637
-26448
32767
1504
-30816
-5080
-6208
1738
644
-6260
-9256
-32768
2848
2416
32767
-32768
-19680
461
-6132
-1796
24192
3620
-32768
-81
-20208
-2612
16864
-2606
15480
5360
-198
-620
-22208
2582
-14080
32767
5680
-25968
4732
32767
-2470
112
-8736
-11312
-7516
-21264
12176
1108
-5408
20128
21776
-22704
-32768
-3764
32767
-5840
15376
32767
-7204
4232
3662
-2476
-5064
10648
1469
6912
-11472
3686
16944
-32768
-14400
32767
1296
-8192
7548
-18912
-1358
-32768
32767
-4
32767
-30192
-32768
-9088
151
6028
32767
-1256
-12672
2454
32767
-32768
7072
-9384
32767
-2926
-106
4580
-32768
-32768
32767
-6704
-32768
8520
-12544
-1814
18560
32767
-1134
-26880
-21040
-32768
2896
3310
2620
-19792
-17584
-32768
-22784
-4372
-32768
-32768
-3438
7764
2644
512
-8040
4956
2624
-20448
-261
7920
-2888
12696
88
-3936
-32768
3274
1223
-32768
1522
4976
7488
-2626
5160
1923
9824
-2712
32767
-5592
6896
32767
32767
-142
24048
-330
6396
-6088
27168
-5736
13464
-3980
-1650
-15192
-5008
-3130
-8512
-8120
-5508
-2438
1695
-27600
920
4336
-32768
25264
-23152
260
10128
-1183
2456
-5228
5120
-32496
6792
1773
2412
6852
11160
-19216
9256
-5132
9592
4728
-3558
-20896
-450
-7448
32767
-4376
400
-10392
-11112
5004
7760
11712
10288
-32768
4316
-32768
4628
-1933
-7824
-32768
8240
-4184
-409
-6456
-6636
-11752
12304
-24992
-18976
14376
-7000
1948
-5800
-3050
-10512
-5216
7460
-2126
-423
3922
6496
11104
29984
-1807
-3338
-4084
36
2206
-470
5936
14296
5344
-32768
-2652
-1464
-17232
3076
5368
-32768
7784
-1124
7800
-139
7076
1625
32767
32112
7428
14248
-948
-3088
7152
32767
4908
-3466
32767
-1130
23824
-12944
-10152
1190
6856
-3188
-3474
-2272
-18384
-10032
-10080
1386
980
-2516
2382
-1755
1964
-1380
9504
-1486
1446
14976
-13192
-24272
-20608
-2019
-32768
-1487
246
-7748
2828
32767
9264
-5744
1780
-6128
32767
3116
-3566
9136
183
-2536
-31088
1763
-7644
-26544
-4668
32767
23152
-11992
-6280
-2972
-5280
2308
7428
-32768
-3712
-7352
2424
-2274
-4086
-5288
1277
12032
9024
-1826
-255
32767
-32768
-32768
-1008
31072
-15048
-12328
19584
-6284
-9448
31440
8064
3342
1910
6892
4216
-12128
32767
7172
12840
-28224
11192
4788
-4328
-28208
-23024
2578
-32768
32767
1206
-32768
-2818
-32768
-7204
-2600
-1848
-32768
-1712
-32768
-3484
32767
-14272
4288
3730
-22688
-4224
8064
10720
-19952
-3976
-16232
-6484
-7528
-3634
-1990
3784
-5128
11000
6260
-32768
889
27056
-2318
-6092
-3074
32767
-15352
23840
-682
6756
-32768
32767
-7456
-9856
15128
-3172
32767
6304
-3930
32767
-13200
2256
1766
-32768
2150
2822
-32768
-1774
2870
-6688
-1668
1373
-4860
-29824
-9416
128
-14272
-4204
30240
-4268
8432
-18576
-17936
962
13744
16912
-781
2732
-12296
1006
4070
2882
7164
-16688
2682
-1152
4412
32767
672
-5452
-2932
2900
15600
-5684
-32768
12152
-5436
-5884
-11040
-7308
-492
-30560
-272
-12944
-14336
-32768
1424
-374
-16112
-32768
-9432
5020
11544
-3744
-3432
-3816
1320
15136
-29808
-950
-9696
19376
13632
32767
-13776
370
4244
2560
-32768
5224
-5640
-910
-1992
-32768
-32768
-2716
-2268
-14144
3208
-32768
19536
-1509
32767
11200
3320
-5276
375
-8632
-8352
-1183
-3694
1146
-5152
-930
5600
8880
25648
10976
1251
-6216
-3634
3086
-180
505
32767
-25984
-32768
-3084
-3882
5632
-20352
7888
32767
-4604
-3302
3118
-3192
4336
4360
22848
-15712
-4344
-13072
3364
-1991
6208
32767
1899
-1237
19552
-1656
-1304
1939
1983
1465
-13384
-289
2924
812
15216
-1165
1649
-2624
-5204
-10120
3606
3124
-12664
-3834
-32768
-3784
5608
-9696
-1069
30304
4156
3738
32767
-125
-16768
-14288
557
-92
-3106
-18800
2402
-9088
2822
-7656
-12800
10312
-3834
-30752
-2544
-1447
-8616
4720
-16032
32767
-8464
-28848
6028
197
9128
-13632
8352
24848
-3314
-838
-1053
5724
5760
1894
-8028
7388
-8656
-2452
1117
1760
-32768
-32768
1273
-31776
7944
19200
-28336
-9864
1531
31408
-4732
-5004
6120
-720
12680
16752
14704
-16720
-1593
-32768
32767
3242
5296
-8200
-645
3698
1105
5616
-3068
-32768
21680
-15096
2392
-844
-2714
-14200
-5272
164
3688
32767
32767
1761
-7660
-32768
-2258
7376
-6176
-7956
10952
-29968
4808
-1465
2142
-10976
-173
-9456
10856
4324
-19808
11736
3378
7896
-13816
-10456
-16784
-13376
-1250
-768
1564
-32768
-32768
-14424
-32768
-7608
32767
23472
10496
-886
10496
-22336
2576
21680
32767
-32768
-32768
-32768
3144
1953
-32768
-964
-4212
1360
9712
-2776
-3048
-32768
-4252
-32768
-1844
10160
32767
-32768
2998
3032
942
-8048
-21536
32767
3188
26784
768
-7644
-13504
-8744
2788
-19392
7460
10120
-2166
-3930
-2720
-32768
10360
-32768
19872
-32768
694
15728
-2966
12656
7272
-26352
32767
32767
-32768
1074
1274
-370
-32768
-20992
5004
8776
1030
7864
29616
-17664
-4148
-32768
-219
-7020
-2416
5672
-32768
-32768
-12896
16928
-32768
32767
32767
1829
-4944
1170
8600
32767
10840
7388
32767
-3346
32208
32767
-1412
32767
32767
32767
1131
3142
32767
9360
-4556
-9800
-16208
24208
-1785
13688
21632
32767
-4440
8208
32767
19136
19
-4184
1441
32767
-32768
-32768
-26384
-32768
32767
11536
-650
-14368
6976
762
5772
-756
-32768
-1578
-32768
-24080
1223
-22912
945
8084
5808
32767
-6200
-3142
-28144
-3972
-32768
12072
3806
-6664
2146
-912
-1891
-11520
32767
-4588
-16688
-22896
-15416
746
-10
-32768
5096
3152
-5104
32767
3266
8124
-1043
32767
3354
3066
-32768
17840
26128
-32768
-14984
32767
19616
-10056
-6912
-6640
32767
1105
-5584
32767
-3358
-32768
5156
8172
1898
32767
-2630
32767
-32768
32767
32767
2134
-32768
-32768
1284
-32768
32767
-1804
1248
-502
-12272
311
-17824
412
-12720
24
32767
32767
32767
-32768
-15416
32767
3502
2976
32767
-7492
-32768
-32768
7044
816
9312
-8808
-30768
-9136
-32768
-1309
-8592
-32768
5352
-8172
4860
-7192
32767
2326
4036
32767
-3884
32767
-14488
32767
-3906
-4816
772
-32768
2762
25024
11000
-32768
32767
-19200
-9520
32767
32767
8352
-5588
10568
18928
-6472
11040
-11104
-32768
-7836
-23216
-17328
5056
-590
32767
32767
8760
2908
2648
2566
-6644
-6384
32767
-32768
-358
-32768
-32768
15752
-32768
-32768
-21120
26160
-2640
-1233
-15392
-1756
-7804
4508
-32768
-17520
270
-17456
-1885
3824
-32768
1652
-19280
-5244
24208
5308
-3348
32767
-12992
32767
22736
6732
-32768
32767
-21424
-32768
32767
-2880
-32768
-32768
-190
3106
-22720
-32768
32767
-44
2478
12536
-32768
-12216
-1544
-5536
8840
-18096
-5008
32767
-13968
32767
366
-3804
-21792
-7600
-2938
-8936
22112
16088
32767
-2008
-3684
-32768
32767
1424
-19648
9616
1961
-3392
-25248
11904
-3620
-32768
3154
-4512
16768
27760
-32768
2
3538
28752
-32768
-32768
-17760
10192
11496
-2292
-13824
32767
7924
-2033
-10064
-11592
32767
32767
6356
-32768
32767
-32768
-32768
-4860
32767
2388
-6880
6908
-6300
23056
-4980
-4136
17136
32767
-24400
9192
-32768
-27168
-13776
4880
2896
-32768
9320
32767
-1052
-3006
32767
-18992
13024
32767
2598
1712
2466
2090
9120
-1462
32767
6016
1530
-32768
14984
-19456
-32768
-31616
15064
3392
-32768
-32768
-32768
-4076
-12848
-423
1104
-21696
-4042
-7424
-32768
226
8840
2192
3622
28992
3048
-32768
-8712
1380
9096
32767
-17744
16048
-3960
25376
-7060
-32768
-32768
-453
32767
-32768
3128
32767
32544
17280
-2342
7548
32767
-11312
3772
32767
375
32767
-22064
8616
-4224
-32768
2286
32767
-32768
-32768
18912
12552
-32768
-6736
10784
-32768
-32768
-4588
-7204
-4700
1913
-14384
-9632
-5608
-1310
-32768
32767
-32768
-32768
32767
4012
-32768
-8944
27536
32767
-367
-32768
-32768
-10240
1010
-5108
1117
-6304
15296
32767
-10616
9568
-32768
-32768
-886
7980
-16088
32767
-32768
32767
-32768
-8544
-32768
-1046
-32768
-31840
-5280
1097
32767
-5744
32767
-32768
-32768
-32768
4712
3324
32767
29552
-6492
5124
-7540
32767
-32768
2814
26464
16368
-8960
2030
13488
-4724
-7276
-32768
23632
-28848
12400
1164
10568
32767
-32768
-29344
-631
-3952
32767
-32768
8240
-25936
-18032
-23840
-13704
10832
-3604
32767
-12928
-32768
3382
32767
-8012
-32768
-32768
2308
4532
32767
-12208
568
-7472
-23840
-4292
-1180
-32768
-1345
-32768
1925
8176
32767
26640
906
32767
32767
4144
2930
-32768
-2496
15056
276
-8544
-25568
-7100
-20304
-32768
-32768
-2858
-29952
-21744
10944
7260
15048
32767
-24000
-32768
-22624
-32768
-5332
584
-5336
-16848
32767
32767
-32768
-23696
-32768
-32768
-32768
-15544
6684
5024
-11552
-1726
9000
-19632
-14312
32767
1176
-9512
32767
32767
-32768
8648
32767
10712
-32768
32767
32767
-14424
-31664
-3864
-22992
32767
8232
1119
31936
-2986
32767
32767
-32768
-32768
-14536
32767
-17120
-5548
-18992
6972
-1179
4232
-2408
30832
-2774
-1453
14664
-32768
3498
10464
32767
2282
-5004
-5736
-7080
-32768
32767
-32768
-7728
32767
32767
6992
8132
32767
3280
3084
174
-10816
742
-5412
-30544
-19728
-9640
-32768
6560
-739
5592
-5824
1552
-10456
-32768
2680
-32768
3166
-30640
-7432
4964
3056
-5504
-4796
-32768
-175
4260
2144
2168
-32768
2138
32767
-5716
-715
-9736
24784
5460
-3130
3036
-9656
16896
1314
32767
-1530
-32768
-32768
-32544
-32768
12352
-13536
-10952
183
-16152
18352
-9976
-32768
-300
-32768
-8088
9368
1337
32767
-16800
32767
2842
32767
32767
-5252
32767
-32768
154
32767
19072
-3038
-598
-7228
-9152
-5584
-24976
2646
-19168
-5680
32767
32767
32767
32767
-2106
-32768
-1584
32767
-3954
-24816
32767
-32768
10560
7876
1237
-4136
-13728
-32768
-32768
-7656
-16072
32767
-32768
-9440
15848
31200
32767
4560
-32768
-32768
2340
-32768
-8304
32767
-16152
-13608
1030
-32768
1772
30608
10336
-32768
32767
2031
-13000
-32768
7532
12008
-1864
21776
-14600
-12472
5484
-565
-32768
-21360
-32768
-22816
32767
-5204
32767
-1574
32767
18688
-8976
-7468
-32768
-29232
32767
-32768
1957
32767
-32768
2220
-6376
-32768
-5152
954
13152
4524
32767
3868
-5968
-17520
-32768
12288
-8020
-32768
-9672
-2978
-32768
-17344
-2970
425
7816
-2752
-2418
32767
-13024
-32768
4940
5612
32767
-32768
-11872
-32768
32767
-2278
-25168
32767
-19216
-2028
-19280
-17728
32767
-1239
-4720
17200
-2630
-4292
-11440
-32768
-7304
4400
9664
-32768
-24400
32767
-28736
2620
2024
-9928
25424
5980
8304
1546
-32768
-24752
-3800
-32768
-32768
-20
-6456
11384
6436
6036
23984
-3652
-1791
32767
-8656
-7772
2074
18432
-32768
20784
-2598
28688
32767
32767
32767
17392
2009
-9568
-32768
-32768
4108
-17280
32767
-18016
-32768
32767
3382
-31744
-6656
-32768
-32768
-11328
-32768
500
1896
-8712
-538
26208
28
4508
2154
21376
8392
157
32767
-32768
-16880
1090
1437
-32768
-32768
-32768
-11776
-32768
-32768
7864
4480
-32768
-32768
692
1475
-6200
-4772
4728
-32768
14176
2158
-31472
10376
-25040
32767
-32768
-841
2946
32767
-26672
